layers 3
layer 0 Dense
38 100
[-0.02357391  0.00763997  0.02120812 -0.04661273 -0.04765586  0.04795254
  0.00560872 -0.03415906  0.04673215 -0.0078576  -0.03341676 -0.01755659
 -0.04856364  0.03938827 -0.00915612 -0.04321929  0.03611546 -0.03193668
  0.03360418  0.01619129  0.00198877  0.01112207 -0.04294869  0.03500647
 -0.0010438   0.03828594 -0.02528392  0.00451881 -0.03598186 -0.03463967
 -0.02272704  0.012205    0.03320465  0.00751517  0.02033703  0.03697057
  0.01733181  0.03971479 -0.01775367  0.03075108 -0.04349542  0.03418172
 -0.04179024 -0.02344246 -0.035425    0.02525708 -0.00886424 -0.01060186
 -0.03698715  0.01579053 -0.00531486  0.00271409 -0.01115207  0.01715931
 -0.01057465  0.00818087 -0.03248386  0.04212792 -0.02982266  0.04160793
 -0.00301481 -0.00248759 -0.04893981 -0.02328862  0.02295867  0.03629782
  0.01942657  0.02505677 -0.02915912  0.02672279 -0.04402978  0.03498152
 -0.00625434 -0.02371839 -0.03055346 -0.00739586 -0.01383529  0.02405462
  0.00654726 -0.0395782   0.04244942 -0.01878765 -0.01553105 -0.02595018
 -0.00316256  0.04270083  0.04817795 -0.03162183 -0.03500806  0.01088671
 -0.0312039   0.04537177  0.0383463   0.02650949 -0.01249029 -0.00677668
  0.02875147  0.01838357 -0.00289469  0.02331078]
[ -1.74467452e-02  -1.46580450e-02   2.61329152e-02  -1.83475614e-02
  -1.01564415e-02  -2.65968926e-02   8.64405558e-03   3.70922945e-02
   2.03250907e-02  -3.97025459e-02   1.70916356e-02  -1.24611482e-02
   6.67611510e-03  -2.59621032e-02  -2.05805302e-02   1.54800750e-02
  -2.32676622e-02  -2.47457270e-02   3.53032835e-02   4.79831360e-02
  -8.11491162e-03   3.90705951e-02  -1.77589543e-02   6.32562488e-03
  -6.93849474e-03   5.54808229e-03   4.47793640e-02   1.19121447e-02
   5.12085110e-03  -3.36292274e-02  -2.96921022e-02   1.98747851e-02
  -2.08194144e-02  -3.58808152e-02   2.57904455e-03   4.58601862e-03
   3.89574841e-03   1.08730793e-03   3.69539969e-02   4.96025197e-02
  -4.47422266e-03   3.14098708e-02   4.95764278e-02  -5.43592125e-03
  -4.64911573e-02   2.15241425e-02  -2.05207001e-02  -6.43812492e-03
  -1.18769705e-04  -9.16957855e-03   3.95340361e-02  -3.68349068e-02
   4.94727604e-02  -3.90433073e-02   1.44184344e-02   2.70747282e-02
  -2.07995903e-02   9.90615040e-03  -4.75419052e-02  -1.66508928e-02
   3.27484719e-02  -4.50722873e-05   4.65818495e-03   3.85736302e-03
  -4.64330912e-02  -9.73425061e-03   3.18482853e-02  -4.11518104e-02
   3.64823602e-02  -5.86140156e-03  -3.65637541e-02   1.58235170e-02
   3.50051783e-02   3.59425209e-02   4.92391624e-02   6.75167888e-03
  -1.07287765e-02  -1.65368095e-02   4.77893278e-03  -4.07374389e-02
   4.68906276e-02   1.73962750e-02  -2.67051104e-02  -4.78826053e-02
  -4.07093763e-03   1.25189908e-02   4.58952077e-02  -5.57734817e-03
   1.82858445e-02   2.52796076e-02   4.72825766e-03   4.48171385e-02
  -2.42005121e-02  -2.17740294e-02   3.18301842e-03  -2.90301330e-02
  -2.04879399e-02   1.33833326e-02   1.38043053e-02  -2.48272419e-02]
[  1.66692603e-02  -1.11581031e-02   1.70666724e-02  -7.33046681e-02
  -8.25112220e-03   3.36811207e-02  -5.96156307e-02  -2.12228708e-02
  -3.94843966e-02  -6.53384775e-02   5.05151898e-02  -6.59908727e-02
   8.12891312e-03   1.48237012e-02   5.86633664e-03  -4.70968634e-01
  -4.97217514e-02  -1.21657993e-03  -4.31344435e-02  -1.06603056e-01
   7.63094099e-03  -8.00655317e-03  -3.59052718e-02   2.58806860e-03
  -4.03046701e-03  -4.32225391e-02   4.63935696e-02  -1.34231169e-02
   4.76948079e-03  -2.07006577e-02   4.30075601e-02  -3.27773988e-02
  -2.86482554e-02   1.85195394e-02  -2.05371833e+00  -1.98220219e-02
  -2.41283365e-02   1.19957356e-02   1.24777537e-02  -6.74251327e-03
   1.21017033e-03   2.68184301e-02  -3.06191650e-04  -1.31664360e-02
  -5.28157912e-02  -3.03571261e-02   1.55411316e-02  -9.70679428e-03
  -3.95196788e-02   1.51487207e-02  -1.01368157e-02   4.45213430e-02
   1.73006598e-02  -1.45916175e-02  -2.04698350e-02  -2.38722730e-02
  -2.65937089e-03   1.99090410e-02   2.74664257e-02  -3.25284824e-02
   2.62191668e-02  -3.84135693e-02  -2.86083296e-02  -2.75059929e-03
  -1.63088758e-02   4.17063870e-02  -6.52746558e-01  -1.88719630e-02
   2.64604576e-02   7.10243965e-03  -1.37033546e-02  -4.47556898e-02
   1.17623964e-02   3.18203419e-02  -3.31062038e-04  -7.28686476e+00
  -1.25202477e+00   2.51141507e-02   6.99083060e-02  -2.59537883e-02
   1.11039206e-02  -5.85132837e-02   4.67149075e-04  -1.90727115e-02
  -1.00326575e-02  -4.79053007e-03   2.45630927e-02  -1.23897977e-02
  -8.44538398e-03  -2.37876289e-02  -3.72109599e-02  -2.89986935e-02
  -4.69201431e-02   1.57823488e-02  -1.14983600e-02   2.68747434e-02
   3.20085953e-03   1.64436121e-02  -1.15359783e+00  -8.80681386e-04]
[ 0.63726634 -0.46338907  0.01631076 -0.75927186  0.7357499  -0.27511626
  0.59662145 -0.65153372 -0.78233671 -0.77114123 -0.746153   -0.20269656
 -0.87129223 -1.04489958 -0.82378536 -0.73573375 -0.82159221 -0.77808446
 -0.7947346  -0.84793657  0.70481545 -0.18392736 -0.92073107  0.07936381
 -0.51942837 -0.55795252 -0.53736246  0.19202885  0.77497107 -0.03405
  0.05391916 -0.73734051 -0.88290709 -0.72109699 -2.44705915  0.55808264
 -0.7093876  -0.88689715 -0.32278663 -0.7226724   0.77940494  0.12129305
  0.64840841  0.32971105 -0.72105891  0.28313881  0.73637676 -0.11149959
 -0.91346586 -0.17181091  0.2368363   0.14643532  0.69474179  0.64139032
  0.07541782 -0.92106628 -0.57931811 -1.03658438  0.82879311  0.02327095
  0.13346855  0.39753792  0.12276838 -0.87488788 -0.70458537  0.71945757
 -0.71704143 -1.25153089 -0.47736573  0.79310763 -0.92911494 -0.0602482
 -0.82650077  1.05109489 -0.97324836 -7.38269949 -1.31567883  0.45657036
  1.1554594  -0.77282554 -0.71957427 -0.91043311  0.7123602  -0.02756296
  0.43844593 -0.31500822  0.90535861 -0.7248044   0.53091002  0.79861194
 -0.78614044 -0.83460945  0.93488777  1.12626958  1.03342199 -0.82504505
 -0.72553045 -0.94610798 -1.32975996  0.69184816]
[  6.17121279e-01  -6.20738447e-01   8.50290895e-01  -5.80508530e-01
   6.49798334e-01   2.65608907e-01   2.14667305e-01   4.01563525e-01
  -3.83290917e-01  -6.43942177e-01  -5.27281046e-01  -1.99935317e-01
  -1.12010002e-01  -4.71910149e-01   4.77521718e-01  -7.91021287e-02
  -3.89789760e-01  -3.44703123e-02   4.18831408e-01   8.09388578e-01
  -2.37210944e-01   6.52511895e-01  -3.76629263e-01  -7.01770723e-01
  -3.64568710e-01  -5.37113011e-01  -3.57762545e-01   6.86161160e-01
  -2.30275854e-01  -7.35019743e-01  -5.04442632e-01  -9.26309407e-01
  -5.16080081e-01   2.43608594e-01  -3.07002711e+00  -5.03352165e-01
  -4.63858515e-01  -4.13728692e-02   6.73711538e-01  -3.21276970e-02
   2.63361305e-01  -7.07289279e-01  -1.87344626e-01  -8.36782455e-01
  -6.18034959e-01  -1.80338457e-01   6.58157825e-01   8.17672968e-01
   2.25876451e-01   5.56951284e-01   7.04516709e-01   2.64271796e-01
   4.35125738e-01  -4.28285748e-01   7.81303585e-01   1.69410244e-01
   5.78562677e-01  -5.17666340e-01   3.06000531e-01  -2.89858907e-01
  -5.53923547e-01  -3.89119983e-01   4.76987332e-01  -7.26914048e-01
   1.66724890e-01  -5.93848526e-01  -6.34966910e-01   1.66851208e-01
  -3.64337742e-01   2.36515909e-01   2.47846648e-01  -8.22313130e-02
  -7.00381100e-01  -4.54848737e-01   4.30571944e-01  -7.14448261e+00
  -5.48670352e-01  -5.43283880e-01   1.00475800e+00  -6.05635524e-01
  -3.11049968e-02   4.14215803e-01   6.85674883e-03  -4.98419791e-01
  -5.79609334e-01   4.16529834e-01   2.57851660e-01   2.97373086e-01
   6.82662308e-01  -8.09097946e-01   7.87369668e-01  -2.80921403e-02
  -3.56191546e-01  -5.20650327e-01  -2.42980406e-01  -1.61093697e-01
   2.60804743e-01  -2.22090080e-01  -1.60087740e+00  -4.96943861e-01]
[ -6.73237205e-01  -8.61825109e-01  -1.07073891e+00  -1.11124122e+00
  -7.97173321e-01  -8.03520143e-01  -1.04162538e+00  -7.52073646e-01
   7.08163619e-01   3.00282575e-02  -8.10126841e-01  -6.16322644e-03
  -7.81447828e-01   1.08643997e+00  -7.43528485e-01  -7.78419912e-01
  -8.76304626e-01  -8.85112882e-01   2.39439502e-01  -1.07882965e+00
  -6.86330199e-01   8.95925999e-01  -9.83749986e-01  -8.68830144e-01
  -5.41409910e-01   8.64855111e-01  -5.96296430e-01  -7.83930779e-01
  -7.60460496e-01   7.51150120e-03   1.52985263e-03   1.03395474e+00
  -9.69906390e-01  -8.39457989e-01  -3.61356688e+00  -9.05942261e-01
  -8.39975059e-01   9.60716248e-01  -5.75306654e-01  -7.99489796e-01
  -7.55100131e-01  -8.59777749e-01  -8.17682028e-01  -9.57428038e-01
  -7.43482828e-01  -9.75410715e-02  -9.17187452e-01   8.84907365e-01
  -1.01205862e+00  -8.72330725e-01  -6.34478033e-01  -4.34740931e-01
  -8.90756190e-01  -7.70677269e-01  -8.37092876e-01   8.88790548e-01
  -7.98214912e-01  -1.08687735e+00   7.98940957e-01  -8.17174435e-01
  -9.73713994e-01   6.80244088e-01  -8.36407363e-01   8.42346489e-01
   2.96465605e-01  -8.99202049e-01  -8.77474487e-01  -1.24417460e+00
  -7.47013330e-01  -8.17693114e-01  -1.02314711e+00  -9.89956558e-02
  -3.00974607e-01  -1.06994081e+00  -1.05840588e+00  -7.20183659e+00
  -7.77785242e-01  -8.01572084e-01   7.23958790e-01   8.10586035e-01
  -6.59626067e-01  -1.01365614e+00  -8.64776850e-01  -8.15819323e-01
   8.25918138e-01   7.43829310e-01  -9.82097387e-01  -8.51575732e-01
  -8.50139201e-01  -9.94072556e-01  -1.00678599e+00  -8.33918512e-01
  -1.07725441e+00  -1.08620059e+00  -1.02935863e+00  -8.13302755e-01
  -7.52408385e-01  -9.69872296e-01  -1.43627322e+00  -6.86008930e-01]
[  3.84479985e-02  -2.47828998e-02   4.37017940e-02  -2.84088980e-02
  -1.94376130e-02   4.89067473e-02  -3.66938114e-01   1.65798832e-02
  -3.03663090e-02  -3.67458127e-02  -8.60874914e-03  -1.35156633e-02
  -7.83397630e-03  -6.48379698e-03   1.98614970e-02  -3.10412645e-01
   2.39311513e-02   4.93641291e-03  -4.51588333e-02  -1.80253796e-02
   2.40797978e-02   5.02653653e-03  -1.24984495e-01   4.03294386e-03
   4.78033312e-02  -9.79491603e-03   5.59917465e-02  -2.08134484e-02
   1.78286284e-02  -4.04620450e-03  -2.39587929e-02  -2.22933386e-02
  -4.36861031e-02   2.56895926e-02  -3.34454322e+00  -2.54212376e-02
  -1.38290133e-02  -8.25004000e-03  -3.57916229e-03   3.90900224e-02
   2.30145752e-02   1.92853492e-02  -1.40697770e-02  -8.21827203e-02
  -1.55097023e-01  -1.96949188e-02   3.34095582e-03   1.67728197e-02
  -8.37294850e-04   2.74878833e-02  -9.51925199e-03   4.65255491e-02
   1.14725176e-02  -1.39260348e-02   1.65339392e-02  -2.17794348e-03
  -1.95128638e-02   3.88169102e-02   5.98838590e-02   5.69155533e-03
   7.00621633e-03  -3.09592243e-02   2.04287916e-02   1.93783306e-02
   1.42663496e-03   1.48653742e-02  -8.10038328e-01  -8.94964337e-02
   1.18696773e-02   2.33257748e-02  -4.50367406e-02  -6.95252791e-02
   1.63238663e-02   6.92677777e-03   9.03301686e-03  -7.06906986e+00
  -7.01005161e-01  -5.17040771e-03   4.79492545e-02  -6.39650747e-02
  -2.21899953e-02  -7.59095326e-03   3.80421197e-03  -5.97843342e-02
   1.79447979e-03  -3.04938238e-02   6.00255979e-03   1.78258633e-03
  -1.70291085e-02  -4.92501594e-02  -3.91061641e-02  -6.09695166e-02
  -8.42201486e-02   1.06107909e-02   6.84046827e-04   7.99458399e-02
  -2.37465110e-02   1.83916204e-02  -1.36663830e+00   8.03177152e-03]
[  3.97468507e-02  -1.16674360e-02   2.84016654e-02   1.65291075e-02
  -2.09655631e-02   5.24196634e-03  -2.83529371e-01   2.48228405e-02
  -3.96385565e-02  -3.53783816e-02  -3.18673961e-02   6.90091355e-03
  -2.76241787e-02   2.47157272e-02   1.94398705e-02  -3.48743111e-01
   2.05462538e-02   2.83824541e-02  -3.89194153e-02  -1.31658893e-02
   2.54976433e-02   9.79336258e-03  -5.56021631e-02   4.18999745e-03
   5.07443547e-02  -1.41232237e-02   6.12386279e-02  -3.09196003e-02
   1.10695453e-03  -3.88464481e-02  -9.22175415e-04  -2.18215194e-02
  -2.50051115e-02   3.91647704e-02  -2.88891196e+00   5.48184942e-03
  -6.18887097e-02  -7.68965529e-03   2.46615168e-02   3.77584137e-02
   1.62577387e-02   2.00219769e-02  -2.05178503e-02  -8.70718732e-02
  -9.92376506e-02  -1.75983254e-02   1.03781035e-03   2.23049074e-02
  -3.91799025e-03  -2.08162218e-02   1.59694150e-03   6.52399659e-02
   1.52093265e-02  -5.04363030e-02   2.28923988e-02   3.01276110e-02
  -3.12755555e-02   3.22375707e-02   4.05006036e-02   3.00450926e-03
   1.52491909e-02  -2.98391785e-02   1.09279566e-02  -1.30843204e-02
   5.11897868e-03   2.16249302e-02  -8.21212709e-01  -8.91022533e-02
   1.17552998e-02   2.66996529e-02  -6.24187104e-02  -1.17839091e-01
  -1.22813182e-02  -1.64206920e-03   1.97592527e-02  -7.11770487e+00
  -6.80168808e-01  -1.66301094e-02   3.25285010e-02  -5.55626228e-02
   3.42875253e-03  -9.28575080e-03   2.45072343e-03  -5.80157600e-02
  -2.04722513e-03  -7.85478763e-03  -9.85793117e-03  -2.58164722e-02
  -2.38089822e-02  -6.61421567e-02  -3.66426818e-02  -7.23919794e-02
  -1.00776620e-01   1.60779618e-02  -2.27474868e-02   7.56134614e-02
   9.12639685e-03   4.56026681e-02  -1.37336171e+00   6.76888321e-03]
[ -9.11271927e-05   1.28171453e-02   6.79019315e-04  -2.88341530e-02
  -4.89062676e-03  -1.57855209e-02   1.44337431e-01  -1.34414183e-02
  -4.70737088e-03  -1.85956154e-02  -9.04413965e-03  -4.43404354e-03
  -2.25625224e-02  -4.35813144e-03  -2.68306192e-02  -8.30943510e-02
  -1.39447702e-02   1.68045145e-02  -2.15723267e-04   1.70001120e-03
  -7.31089758e-03  -3.71085145e-02   3.80871259e-02  -5.68483956e-03
  -3.48919630e-02  -1.70002300e-02  -4.80854465e-03   3.81515138e-02
  -1.15678890e-03  -6.95074303e-03   2.45537776e-02  -1.07141100e-02
   1.84833333e-02   1.29669821e-02   7.53387576e-03   9.22037114e-04
  -7.85252266e-03   2.78460495e-02   6.30471623e-03  -2.24111248e-02
  -6.43498963e-03   2.83225626e-02   1.25873298e-03   7.36444350e-03
   1.78478993e-02  -1.19025568e-02  -1.21653760e-02  -1.84259191e-02
   7.21160788e-03  -3.27468291e-02  -8.78101401e-03  -1.33403605e-02
  -1.67374522e-03   6.35765027e-03  -4.49368823e-03   1.57727189e-02
  -1.48652855e-03  -2.03007776e-02  -1.14057809e-02  -8.32256395e-03
  -6.02406566e-04   1.24749085e-02  -1.04491590e-02  -4.66579944e-02
   3.07499059e-03   1.60787180e-02   2.57246848e-02  -2.00798213e-02
   2.83228466e-03  -9.26905312e-04  -3.31216976e-02  -2.68119574e-02
  -3.36717907e-03   2.30356082e-02   5.60590113e-03  -1.28314763e-01
   1.11752069e-02   9.19046532e-03  -1.85413882e-02  -1.04689202e-03
   2.44476665e-02   7.72977667e-03  -3.21142655e-03   2.70437356e-03
  -2.46709678e-02   1.76578350e-02  -6.45167846e-03   1.39907738e-02
   1.73651092e-02   2.25514732e-02  -5.33780046e-02   1.46646779e-02
   2.44679861e-02  -1.05039147e-03   1.57317473e-03  -1.63862680e-03
   1.79301295e-02  -2.48516724e-02   6.46411926e-02  -2.38466403e-03]
[ -3.92021553e-04   1.25545147e-03   1.66465016e-03   7.72493845e-03
   2.83628982e-03  -4.22508689e-03   2.97524035e-03   1.41519192e-03
  -3.95607343e-03   1.43844588e-03  -1.32742873e-03   1.34025188e-03
  -1.45033444e-03   1.61467062e-03   2.88666645e-03   9.04558925e-04
   3.00204032e-04   3.56650935e-03   1.83188415e-03  -8.26228352e-04
   1.40757638e-03  -1.44930207e-03   4.98407194e-03   1.23813620e-03
   3.08962073e-03   1.34809746e-03   8.72928882e-04  -2.79726111e-03
  -5.25514013e-04  -1.39190652e-03  -4.66160564e-04  -1.50643243e-03
   3.35506769e-03   1.89577264e-03   2.33271699e-02   9.31613892e-03
  -3.99382785e-03   6.14448683e-04   2.32432759e-03   1.88403053e-03
   3.00595915e-04   1.58950547e-03  -1.56034692e-03  -1.32472429e-03
   5.89539111e-03   2.92527000e-03   1.14508066e-03   7.55245041e-04
   7.65303499e-04  -2.68753199e-03   4.69455612e-04   1.46350160e-03
  -1.66786416e-03  -2.20438233e-03   9.35950782e-04   1.09805231e-04
  -1.24892686e-03   3.03605734e-03  -3.33106285e-03   1.00426631e-04
   1.11040229e-03   1.76316465e-03  -2.86088069e-03  -9.92002664e-04
   4.40794247e-05   1.81314035e-03  -2.06280092e-05   2.90336367e-03
  -1.88050861e-03   6.39243808e-06  -5.86831186e-04   1.97404370e-04
  -3.82131035e-03  -9.86977131e-04   4.27645771e-03   3.74336611e-03
   7.30326818e-03  -1.19530258e-03   3.15119326e-03   9.58102522e-04
   4.76410380e-03  -8.04142212e-04   2.46336043e-04   1.60032744e-03
  -1.70768169e-03   1.15600799e-03   1.28329487e-03  -1.03417446e-03
  -2.75529153e-03  -2.96641304e-03  -6.44034590e-04  -4.30670218e-04
   2.23012787e-04  -2.19918555e-03  -1.15841998e-04  -4.35027294e-04
   2.85919104e-03   3.19968839e-03   2.12788000e-03   1.74990681e-03]
[  2.05620681e-03  -1.72040076e-03  -1.09320111e-03   7.33472465e-04
   1.13268103e-03  -4.92550340e-03  -1.98983587e-03   8.35886807e-04
  -2.84907478e-03  -6.29505899e-04  -1.72289880e-03   2.15344690e-03
   1.28403690e-03  -1.26796146e-03   1.25421706e-04   4.92025749e-04
   1.32688053e-03  -3.02543660e-04  -1.58631383e-03   2.52979412e-03
  -1.50826923e-03  -4.32276283e-04  -1.42677827e-03  -1.86183979e-03
   1.95411360e-03   1.65333005e-03   5.94178331e-04  -2.58703902e-03
   1.29101827e-05   5.59507753e-04   9.62163729e-04  -1.02184026e-03
  -2.80401495e-04  -2.76442268e-03  -6.29037793e-04  -7.53401825e-03
   6.17042184e-04   2.16832687e-03   6.61884900e-04  -2.22442811e-03
  -2.09091348e-03   1.52340785e-04   7.91945378e-04  -3.00900545e-04
   9.61845391e-04  -8.61308421e-04  -4.24084067e-03   3.01745045e-03
  -2.26691039e-03   5.89697273e-04   5.31221926e-03  -6.85419509e-05
   2.84957787e-04   2.35897559e-03   4.97948332e-03   1.72001275e-03
  -2.67081661e-03  -9.09778464e-06  -3.88673972e-04   1.86475297e-03
  -3.40553769e-03   2.92589003e-03  -2.40307883e-03   1.49350264e-03
   6.58049947e-04   3.41048464e-04  -1.75094500e-03  -6.47897227e-03
  -1.08678557e-03   1.66574246e-04   1.84086000e-03  -1.08085305e-03
   3.80394491e-03  -2.17850879e-03  -1.70110632e-03  -6.71331352e-03
   2.23690807e-03   1.25746557e-03   3.34603916e-04   2.56862864e-03
  -3.03582870e-04  -4.28372808e-03   3.02748056e-04  -2.00667954e-03
   5.48224139e-04  -3.51919443e-03   8.19898152e-04   8.60145374e-04
   8.01205693e-04  -6.14610908e-04   4.92105633e-03  -2.44404934e-03
   1.05215644e-03   2.35779979e-03   9.00929037e-04  -1.99370761e-03
  -2.15990731e-04  -1.65535253e-03  -2.45554605e-03  -2.70832423e-03]
[ -1.93716597e-03  -1.24652288e-04  -9.07244976e-05   1.02935708e-03
   2.13470752e-03   2.63623055e-03   1.36075483e-03  -9.98980133e-04
  -1.21599250e-03   7.04931212e-04  -1.00463803e-03  -4.66598111e-04
   1.53194088e-03  -1.46349287e-03  -3.14566749e-03   3.41785629e-03
   3.80225526e-03  -2.11745175e-03  -1.74147193e-04  -3.25813860e-04
   2.24461569e-03  -3.24895838e-04  -1.03844807e-03   4.42881515e-04
   1.49001263e-03   3.79619026e-03  -1.94837025e-03   2.04269355e-03
  -1.42307929e-03  -2.59232707e-03  -1.63786160e-03  -2.13917554e-03
  -1.28450384e-03  -2.30723224e-03  -1.74578885e-03   1.34006911e-03
   7.19477946e-04   1.88479185e-04   4.19891614e-04  -4.48455510e-04
   1.52850145e-04   3.46539251e-04  -7.02210527e-04   3.88762308e-03
  -6.52616785e-04   1.20504737e-05   1.88868027e-04   1.27236836e-03
   7.61693111e-04   2.01860094e-03  -6.74017589e-04   7.79517577e-04
  -1.39503751e-03  -1.77716091e-03  -1.43070193e-03  -3.69546528e-04
   2.93850433e-03  -4.88688378e-03   2.26522447e-03   2.30268040e-03
  -7.84418138e-04  -8.78799532e-04   6.65018742e-04   2.97394348e-03
   3.71487404e-05  -5.69674768e-04   6.34844007e-04   3.43962573e-03
   1.31963962e-03   1.53699541e-03   1.14471675e-03  -1.63464132e-03
   7.73466018e-04   1.51616463e-03   8.08449113e-04   3.17395409e-03
   6.17884449e-04   2.37094378e-03   1.18642375e-02  -9.21859755e-04
   1.15888994e-04  -2.21907301e-03  -2.16376665e-03   1.59235671e-03
  -1.61118200e-03  -2.17653206e-03   1.38076342e-04   1.87347713e-03
  -1.70542311e-03   1.66558486e-03  -4.52968339e-03   2.51178251e-04
   1.75115606e-03  -1.94078533e-03   1.21134217e-03  -1.94973109e-06
  -4.04643390e-04  -7.59305316e-04   2.30658450e-03  -1.55360193e-03]
[  1.98058318e-04  -1.53195043e-03   3.62920923e-06  -1.09770673e-03
  -3.38608254e-04   7.71779218e-04  -1.37878407e-03   1.17931608e-03
  -1.22259627e-03   1.79981533e-03  -2.84697395e-04  -1.01232913e-03
  -8.25263502e-04   2.21617025e-04  -5.40526817e-04   1.73341701e-04
   3.31236603e-04  -6.37820573e-04  -4.18456446e-04  -9.99694457e-04
   1.07963954e-03   1.41482905e-03   4.82565607e-04  -4.13126952e-04
   3.33841104e-04  -1.53867109e-03   1.01914001e-03   1.56138907e-04
   2.11372375e-04   3.13536904e-04  -1.43983145e-03  -9.87462699e-04
   1.02239777e-04   4.88552265e-04   1.94936548e-03   2.13554548e-03
   1.81754399e-03   8.43762013e-04  -1.05856697e-03  -2.82781635e-04
   4.45188925e-06  -8.86668451e-04  -8.75733152e-04   2.47874501e-04
  -2.34579231e-04  -8.93308548e-04   6.96776406e-05  -2.73295591e-04
   3.07054695e-04  -1.08045351e-03  -1.80204294e-03   4.26586019e-04
   2.49940495e-05  -1.13597780e-04   6.84621860e-04  -2.05075921e-04
   4.27815656e-04  -8.85804067e-04   7.36954462e-06   3.82894068e-05
  -3.22936889e-04  -3.30744137e-04  -4.92158833e-05  -5.69745935e-05
  -9.81297053e-05   9.09750059e-04  -3.57013341e-05  -9.86792846e-04
   1.48705672e-03  -6.64400286e-05  -1.02927646e-04  -2.29424052e-03
  -1.03016407e-03   1.03961339e-03  -7.27182633e-05   2.30136258e-03
   1.06984621e-03   8.38040549e-04  -4.86851344e-03  -6.67774118e-04
  -1.92028572e-04   1.69604307e-03   6.88383006e-04   1.32736249e-03
  -9.09480674e-04   1.80865813e-04  -6.05474284e-04   1.40606705e-03
  -4.20664670e-04  -1.45926333e-05   4.37151454e-03  -1.30812245e-04
   1.22975500e-03  -1.10257429e-03   1.58085153e-04  -6.73495699e-04
  -7.30392814e-04  -1.61741499e-03   1.55849906e-03   1.93109168e-04]
[  8.32755468e-04  -1.62158525e-04   1.70638878e-03  -2.81030661e-04
  -1.95557391e-03  -1.49497879e-04   2.20625615e-03   1.09347020e-04
  -1.56756514e-03   1.38812466e-03  -1.70401298e-03   7.88193138e-04
   1.99621730e-03  -7.70784100e-04   3.04409856e-04   1.07655406e-03
   1.99224357e-03  -1.23112404e-03  -6.29033020e-04  -1.87272299e-03
   8.67277151e-04   6.54859177e-04  -8.89752002e-04   5.36499312e-04
   1.67377433e-03   8.78942199e-04   4.54457244e-04  -8.45123315e-04
  -5.47373784e-05  -4.38957650e-04   9.68725304e-04  -2.19750055e-03
  -8.72869394e-04  -3.14637757e-04   1.34659428e-02   3.27288639e-03
  -1.52186694e-04   9.34427837e-04   7.48513325e-04   1.67168374e-03
  -1.65383608e-04  -1.70113193e-03  -2.12457217e-03  -3.92545771e-04
  -7.04421720e-04   1.02115108e-03   8.36859457e-04  -1.54279522e-03
  -2.27692956e-03  -6.01953012e-04   5.74985635e-04  -2.49311537e-03
   5.01581526e-04   3.36419034e-05  -8.02002498e-04  -4.21001634e-04
  -1.45169033e-05   3.41106416e-03  -1.61586434e-03  -3.83157079e-04
  -2.28461227e-03  -1.70063414e-03  -1.25187717e-03  -1.66327460e-03
  -1.64863968e-03  -1.04434544e-03   1.10420643e-03  -5.78243053e-04
  -1.35283789e-03   2.23408616e-03   1.11745798e-03  -2.07130128e-04
  -2.41931947e-03   2.68423901e-05  -2.23947503e-03   2.66035041e-03
   3.94581258e-03  -4.03519298e-05  -2.61213724e-03   2.96466344e-04
  -1.24165870e-03   2.78557505e-04  -9.78843658e-04  -9.88178304e-04
  -2.94317747e-03   1.13944791e-03   1.33249239e-04  -5.45289600e-04
   1.41592594e-04   1.50375126e-04  -3.26471217e-03  -2.09990866e-03
  -4.70111525e-04  -5.59003267e-04  -2.19127876e-04   8.92611220e-04
   1.97362431e-04   9.57630109e-04   3.86766181e-03   8.73926328e-04]
[ -7.53435364e-04   6.88771324e-05  -1.06403802e-03   3.57784680e-04
   1.77477568e-03  -1.65861414e-03   1.25560514e-03   1.50419874e-04
  -3.55429086e-03   5.95406629e-04  -4.00666147e-04   9.38424637e-05
  -1.20484132e-04  -1.27992919e-03   1.51031811e-04  -6.09205745e-04
   5.51923877e-04  -2.15350839e-04   3.40815139e-04  -1.07705989e-03
  -3.78883735e-04  -8.67896131e-04   7.49953615e-04  -3.99515789e-04
   5.69751021e-04  -3.19093146e-04  -2.89099786e-04  -3.00073763e-04
  -9.32963740e-04   7.71174091e-04   1.50774271e-04  -1.24711398e-04
  -8.53147823e-04   1.54441455e-03  -5.29577676e-03  -4.26621642e-04
  -3.39139515e-04   2.78747058e-04   2.10767321e-05  -2.75602535e-04
  -3.35355755e-04   3.39239661e-04   1.34538277e-03   5.68924763e-04
  -4.16719238e-04  -9.18923528e-04   1.09604420e-03   4.78402304e-04
   6.22063293e-04  -8.08323035e-04   1.05032721e-03  -9.44711093e-04
  -2.94052064e-04  -1.59033953e-04  -2.89948075e-04  -7.71313789e-04
   6.47400913e-04  -8.06190073e-05   1.32245594e-03   8.52638623e-04
   1.99301197e-04  -1.45859504e-03  -1.26724815e-04   1.28354819e-03
   1.48055813e-04  -1.12253439e-03  -8.24906165e-05  -1.08661305e-03
   1.70686271e-03   1.29274279e-03  -1.49650185e-03  -9.47749417e-04
  -1.11079938e-03  -1.33316463e-03  -5.74864855e-04  -3.22389463e-03
  -2.84074806e-03  -5.78958541e-04   1.37961854e-03  -3.75213713e-04
   5.79100277e-04   1.43311522e-03  -7.45300087e-04   2.26673757e-04
  -4.64683922e-04  -9.06696718e-04   1.14730047e-03   9.07524023e-04
   2.91745295e-04  -1.67917623e-03  -3.04112124e-04   1.33992929e-03
  -6.44023938e-04  -1.30126730e-03   9.82535421e-04  -3.00467946e-04
   7.93158542e-04   5.69104799e-04   2.57802545e-04  -5.12474799e-04]
[  1.55224814e-04   5.59136039e-04  -1.72454747e-04   2.80922919e-04
  -1.24448654e-03   8.21414113e-04  -2.98958411e-03   1.40091448e-04
  -1.24355173e-03   1.13648188e-03  -3.07532406e-04  -8.00358190e-04
  -6.74534182e-04   5.80811000e-04   2.32864695e-04  -1.30572706e-04
   2.98910949e-04  -7.03486789e-04  -6.66269334e-04  -9.97452065e-04
   7.36992282e-04   1.42974459e-04  -5.45530464e-04  -4.96566179e-04
   1.14987884e-03  -2.91422999e-04   1.25641690e-03  -4.34421818e-04
   1.00363814e-03   6.19051280e-04   5.14764048e-04   7.65692035e-04
  -3.93269700e-04   3.62842722e-04   3.30680097e-03   1.48942426e-03
  -1.28785730e-03  -6.52208109e-04  -2.36784108e-05   1.42329384e-03
   1.06849606e-04  -4.30051296e-04   1.98161724e-04  -1.07872719e-03
   6.42058440e-04  -6.64861058e-04   1.65649841e-03  -9.48585293e-05
   9.41709499e-04   1.43385446e-03  -1.46402555e-04  -4.58104361e-04
   8.77189334e-04   9.02584172e-04  -2.07519464e-04   1.50794313e-05
   6.52778195e-04   1.89820526e-03   4.50216437e-04  -7.92378924e-05
   1.60913169e-03  -2.05395161e-03   2.88296305e-03   1.50912104e-03
  -4.53844143e-04  -2.17562760e-04  -1.35967508e-04  -6.22188381e-04
  -1.91585009e-03   1.14428450e-03  -1.20860532e-04  -3.72794503e-03
  -1.04744593e-03  -8.42845009e-04   1.53676650e-04   1.88545615e-03
   1.77450769e-03  -8.61608860e-05  -1.22748257e-03   1.27761537e-04
  -1.24039629e-03  -3.74334306e-03   3.77364515e-04  -7.87184617e-05
   9.36703582e-04  -2.08638652e-04  -2.12491676e-03  -2.92858487e-04
  -1.31108006e-03  -1.18035625e-03  -1.92295236e-04   1.07648596e-03
   6.81115780e-05   4.68166516e-04   9.09135619e-04   3.12603690e-04
  -1.33335649e-04   4.40298638e-04  -9.60502191e-04   3.90426489e-04]
[  7.36449903e-04   4.95672750e-04   3.02572909e-04  -5.44439419e-04
  -1.19369384e-03  -1.42965699e-03  -1.36742427e-03  -4.14274691e-05
  -1.54058426e-03  -1.31050218e-03  -2.62222253e-03   5.35943429e-04
   1.83476938e-03  -4.33805166e-04   1.12601416e-03  -9.35203978e-04
  -7.28917512e-05  -3.06482689e-04   1.03206071e-03  -8.48595693e-04
  -6.71810471e-04  -5.99650317e-04  -1.02739967e-03  -1.25480437e-04
   1.13414171e-04   8.75836267e-05  -1.02971029e-03   7.35379523e-04
   4.81219846e-04  -8.63855181e-04  -4.40775359e-04   1.54867163e-03
   8.49075092e-04   1.53883966e-03  -1.79082446e-04   1.89915893e-03
  -1.96958455e-04  -9.34485754e-04  -6.53670984e-04   3.47785332e-04
   3.30433220e-04  -5.51031670e-04   8.13372200e-04   2.82863621e-05
  -5.49854827e-04  -7.91642000e-04  -3.89699766e-04  -1.16016879e-03
   5.64831484e-04   5.96998725e-04   4.96195607e-05  -8.99773964e-04
   3.24066699e-04   4.01979167e-04  -2.60297347e-05  -2.29697180e-04
   4.77970345e-04   2.11164402e-03   3.24156717e-04   7.41640688e-04
  -5.26216405e-04   8.45466100e-04   1.40554691e-03   6.37778605e-04
   3.27497488e-04   4.32900531e-04   1.05952669e-03  -3.48300266e-04
  -5.04450349e-04  -2.69710494e-04  -2.16045402e-04  -1.33607327e-03
  -2.61773879e-04  -8.06578551e-04   3.48547241e-04  -2.70113745e-03
  -1.08884776e-03   1.65136764e-03  -1.34103617e-03   2.81820336e-04
  -2.30308084e-04   8.98738101e-04   6.85863779e-04  -3.84399900e-04
   5.02702722e-04  -1.24307597e-04   5.12664847e-05   1.46030542e-03
  -1.87327154e-04  -1.20157696e-04  -2.05829332e-04   2.41625676e-04
  -1.95038610e-03  -5.35597501e-04  -2.03093194e-04  -8.73568235e-04
   7.37406313e-04  -8.01324844e-04   8.23149341e-04   2.62764399e-04]
[ -5.23709576e-04   4.06310707e-03   1.40864388e-04   1.03744183e-04
   3.81766772e-03   3.15720635e-03   3.07930307e-03  -2.42686458e-03
  -3.41191981e-03   2.10105814e-03  -2.53731920e-03   5.66682080e-04
   2.50726915e-03   1.97083410e-03   1.66015245e-03   5.71970548e-03
  -6.07000315e-04  -8.71537137e-04  -9.23943066e-04  -7.88416597e-04
   3.09054594e-05   1.55648321e-03   1.14936614e-03   5.35245170e-04
  -7.56176538e-04  -1.61254383e-03   3.68233712e-04  -2.47502280e-03
   1.08572736e-03   3.54418240e-04   2.09446973e-03  -1.53965340e-03
   2.43335613e-04  -1.15985703e-03  -2.11601169e-03  -3.74116353e-03
   2.60475511e-03  -5.62062720e-04   2.98698596e-03   1.11421366e-04
   8.35620158e-04   4.78322897e-03   3.06021748e-03  -1.71408092e-03
  -1.97166973e-03  -1.76948612e-03   2.42644874e-03   5.00084227e-03
   2.76007503e-03   5.87972114e-03  -8.19342327e-04   2.45128555e-04
  -1.12275046e-03  -2.48107524e-03  -1.08593667e-04  -1.72249996e-03
  -1.01496431e-03   1.82643114e-03   8.24319315e-04  -6.44385815e-04
   5.09485696e-03   1.85555173e-03  -3.69925704e-03  -2.91886902e-03
  -1.12221378e-03   3.04134563e-03  -4.19943099e-04   2.03740573e-03
  -6.84973691e-03   1.24053180e-03  -1.95116433e-03  -1.46163744e-03
   2.41695228e-03   1.26514107e-03  -7.49417231e-04  -4.91532730e-04
  -2.22960161e-03   9.67205968e-04  -8.18049477e-04  -6.73316477e-04
  -3.39558232e-04  -2.68518832e-03   9.71384812e-04   1.23472244e-03
  -5.75406197e-03  -8.72009783e-04   1.37326063e-03  -6.96395524e-04
   2.85117468e-03   1.53004937e-03   7.09514599e-04   2.74771555e-05
  -2.53954134e-03   5.85644646e-03   9.99759184e-04  -2.44465610e-03
   8.00550275e-04  -1.12776167e-03   1.07906654e-03   1.02007738e-03]
[  1.20975624e-03   5.33924485e-03   1.84879370e-03   2.50584609e-03
   4.25665593e-03   1.06568704e-03   6.56113378e-04   1.62965641e-03
  -6.44156104e-03   3.46189039e-03  -1.69138145e-03   1.46314711e-03
   1.05306273e-03   5.76820457e-04   2.07738997e-03  -3.54428147e-03
  -2.13954551e-03  -2.02539057e-04   1.55408599e-03  -8.25190637e-03
  -1.19463133e-03   4.21592547e-03  -4.05296960e-05   1.15450786e-03
  -4.48634988e-03  -7.83605647e-05  -2.49450235e-03  -2.35776161e-03
  -1.54014176e-03   1.97418197e-03  -1.97571306e-03   1.47662405e-03
  -1.20323137e-04   3.05222289e-04   1.33726457e-02   3.12881172e-03
  -2.87260889e-04   1.17364421e-03   4.93993750e-04  -2.02810392e-03
   1.63175006e-04   2.26335390e-03  -4.71652439e-03  -3.41331423e-03
  -5.79800515e-04   2.16044858e-03   2.79814517e-03   8.90979660e-04
  -5.98085113e-04   2.18451978e-03   4.30947111e-04  -1.71548396e-03
   8.51650548e-04   1.47298921e-03   9.70629626e-05  -1.49165455e-03
   5.26968902e-03  -3.86591884e-03   4.70052008e-04  -3.38579761e-03
   2.90671410e-03  -2.88115651e-03   3.62960994e-03  -3.36637185e-03
  -1.56083214e-03   1.33870612e-03  -4.27264534e-03  -1.27915491e-03
   1.57410291e-03   1.03498134e-03  -5.87852998e-03  -4.67147585e-03
  -1.20185636e-04   2.03605345e-03   1.59858656e-03   6.60893600e-03
  -1.13368907e-03   1.47094543e-03  -5.61675383e-03  -3.10319732e-03
   6.28282141e-05  -1.73819120e-04  -2.01953133e-03   3.01180570e-03
  -4.61692968e-03  -2.37423391e-03   3.11446423e-03   1.98666309e-03
  -1.08133897e-03  -4.44671547e-04   8.76166113e-03   5.43585513e-03
  -1.69336959e-03   3.60133476e-03   6.08873263e-04  -2.09515588e-03
  -1.62294006e-03   2.36430694e-03   1.47868891e-03   1.64269950e-04]
[ -1.60249975e-03   2.26734279e-04   4.54850669e-05  -2.26482225e-05
  -1.51478744e-05  -4.14853246e-04  -9.25454660e-05  -7.52619817e-05
   2.35018274e-03   6.99713884e-04  -3.20495572e-04   7.72508909e-04
  -7.56745576e-04  -2.03936972e-04   7.96781620e-04  -1.82645468e-04
   1.12023996e-03  -3.03819659e-04  -3.26747569e-04   5.39827568e-04
  -4.42024873e-04  -1.10469363e-03  -3.21048195e-04   2.59216438e-04
   1.53237244e-03   7.88885111e-04   3.18344275e-04  -4.17556992e-04
   8.69265175e-04   7.10454129e-04  -1.59148022e-03   1.05612457e-03
   5.08719415e-04  -2.91928474e-04  -5.06266719e-03  -1.15124090e-03
   1.35531509e-03  -3.74886615e-04   1.69305233e-04   2.42016540e-07
  -2.85214366e-04   7.84042815e-04   2.41557151e-04  -2.50886922e-04
   4.69465216e-04   5.59173350e-05   3.96371179e-04   2.25407700e-03
  -1.25297738e-04  -3.78652127e-04  -1.10634381e-03  -7.39306095e-04
  -4.96424036e-05   3.10815027e-04   7.92152423e-05  -6.90341461e-04
   4.04670165e-04  -2.16246335e-04   1.11333944e-03  -3.64736014e-04
  -1.41933199e-03   4.00235585e-04   2.94751808e-04   5.10579033e-04
   2.72655161e-04   2.41537535e-04  -3.11482785e-04   1.10185274e-03
   4.40043688e-04   4.89519793e-04   1.63992401e-03  -2.76187435e-03
   3.98173637e-04  -6.93597074e-04  -7.34880974e-04   1.03365700e-03
  -3.90256493e-04   7.60897819e-04  -1.35802454e-03   1.11033139e-03
   7.09513086e-04  -9.32825787e-06  -9.54905525e-04  -1.49552594e-03
   1.74780935e-03  -9.19333484e-04   1.62607917e-04   6.78760262e-05
  -4.57166840e-04   1.08342385e-03  -2.93508265e-03  -2.20223901e-05
   9.77402553e-04  -1.54773268e-04  -5.37050801e-05  -8.11619684e-04
   1.40399206e-04   4.75056528e-04   1.56214647e-03   3.13204044e-04]
[ -6.96053670e-04   9.08537360e-04  -3.27679678e-03   1.32062403e-03
   1.24727387e-03   4.32633376e-03  -4.73575294e-03   1.89185681e-04
   4.64718742e-03  -2.78698187e-03  -2.10780371e-03  -7.88196805e-04
  -2.57984793e-05  -5.75019512e-04   2.68903968e-04  -3.32945911e-03
  -2.56669126e-04  -6.61016617e-04  -2.27190496e-04   2.49375962e-03
  -1.80817605e-03   5.64034155e-04  -1.30896422e-03   1.55985961e-03
   6.61585829e-04  -7.29755906e-04   2.21341936e-04   1.03237166e-03
   2.85083777e-04  -1.65681122e-03   3.09763011e-03  -3.16663703e-04
   5.73447265e-04  -1.60942157e-03  -6.87364629e-03  -2.06527580e-03
   5.68402407e-04  -7.55734800e-05  -1.32709520e-03  -7.54813547e-04
   1.57607705e-04   1.06548228e-04  -5.77718136e-04   2.02558294e-04
  -1.58332157e-04   3.49913840e-04   3.03483859e-04   2.76880548e-03
  -8.62488407e-04   3.34042474e-03   6.77585602e-04  -6.92940201e-04
   1.36591564e-03  -1.12805501e-04   2.52631522e-04  -9.34060314e-04
  -1.89441396e-03  -4.25255101e-04   1.77302910e-03  -2.93288555e-04
   3.92965798e-04  -6.19434344e-04  -6.27758040e-04  -2.78726147e-05
   3.75992007e-04   1.95964728e-03  -3.02552176e-03  -2.08697584e-03
   3.39861587e-03  -1.22895115e-03  -1.91801472e-03  -2.96646357e-03
   6.67604909e-04   2.23795581e-03  -1.13227533e-03  -3.45806731e-03
  -3.99598945e-03   3.30526265e-04   5.02654468e-04  -8.57906070e-06
  -2.30882829e-03   1.32885529e-03   1.16700865e-03  -6.68882218e-04
  -1.73156383e-03   2.13980558e-03  -1.50552602e-03   1.61183509e-03
  -5.32112550e-04  -3.87300737e-04   5.19949105e-03   1.98146608e-03
  -1.55133230e-03   4.35399648e-04   4.72335349e-04   1.09483511e-03
  -1.59243983e-03   2.73880840e-04  -2.53536575e-03  -1.61644968e-03]
[ -8.27129697e-04  -6.28403504e-04  -1.48071931e-03  -1.03976496e-03
  -9.22403473e-04  -6.67219865e-06  -9.75924078e-04  -5.49315475e-04
  -4.97798901e-04  -1.05424179e-03   9.10843199e-04   9.98071162e-04
  -1.55520893e-03  -2.28930643e-04  -1.40065982e-04   1.35681545e-03
  -4.04196398e-05   3.44041444e-04   1.59493211e-05  -1.31043271e-04
  -2.93416262e-04   7.72571017e-04   3.63420811e-04   5.22975402e-04
   4.28556232e-04  -4.50585037e-04  -9.94217931e-04   3.99146084e-04
  -5.82144246e-04   6.55028038e-04  -6.59591518e-04   1.28480908e-03
   1.26330051e-04  -1.96999768e-04  -3.75789497e-03   4.00978187e-03
  -1.21555128e-03  -9.99316835e-05   1.71344727e-05  -1.10863568e-03
   1.29613181e-04  -6.25838118e-04  -9.60664009e-04  -1.33839349e-05
  -1.22419427e-04   2.02165917e-03   1.97937735e-03  -7.29229301e-04
  -8.51051882e-04  -7.21328543e-04  -1.91850797e-03   1.77322177e-03
   5.07805380e-04  -7.30687869e-04   6.73491450e-05  -8.54668499e-04
  -2.42376977e-04   2.24474643e-04   2.84658629e-04  -4.22889687e-04
   6.57931494e-04   7.89755140e-04  -8.42919399e-05  -4.31497407e-04
  -1.03130564e-03   1.88098988e-03   1.55086594e-03  -2.08944897e-03
  -1.75384001e-03   2.78350170e-04   6.94039743e-04   4.54512425e-04
  -1.02254783e-03  -1.11662003e-03  -1.53666001e-03  -5.74679160e-03
  -2.25042901e-03  -1.17349497e-04  -2.20605172e-03   1.04896491e-03
   1.91789027e-03  -9.12283198e-04   8.49247794e-04   7.29745952e-04
  -2.80064321e-03   2.29948964e-05   1.11494948e-04   2.39081346e-05
  -8.47099174e-04  -1.02192769e-03   7.74943037e-04  -5.17620123e-04
   1.11958280e-03  -1.58782140e-03  -8.08790792e-04   1.09952618e-03
  -1.52332557e-03   1.13346206e-03  -3.23586864e-04  -9.46116052e-04]
[  4.42651450e-04   6.46021741e-04  -4.48121107e-04  -2.06860481e-03
   6.66833716e-04  -1.97011279e-04  -1.56107615e-03   4.94803244e-04
   1.66701281e-03   1.15695538e-03  -2.03068601e-04  -7.00706092e-04
   2.10977998e-03  -3.25327928e-05  -2.22476228e-05   1.56941300e-03
   3.05672467e-04  -1.42306526e-04   1.03238842e-03   2.36252416e-03
   9.01094827e-05   4.43769793e-04   1.83663127e-04  -2.45600822e-04
   1.09264080e-03   9.78530035e-04   5.80411695e-04  -5.14652580e-04
   6.78526529e-04   2.63703172e-04  -3.97444179e-04  -1.12457946e-03
  -4.47062659e-04  -6.92766684e-04  -5.74035523e-03  -5.89687726e-04
   8.72330216e-04   5.63097943e-04   4.20871547e-05   1.19763706e-03
  -1.63249948e-04   8.01350689e-05   8.54106765e-05   1.38056246e-04
  -3.19035433e-04   7.43040699e-04   1.05707743e-03   6.66374632e-04
   5.89159492e-04   1.82060362e-03   1.22560072e-03   1.51728350e-03
   2.45372386e-04   5.57644060e-04   1.45332539e-03   7.52485939e-04
  -1.09644185e-04   7.88079342e-05   7.22126977e-04  -1.49077881e-04
   1.14896226e-04  -4.82410949e-04  -9.44766623e-04   1.25535345e-03
   4.98901820e-04  -9.20274470e-05  -1.44880454e-04   5.00397931e-04
  -2.50897210e-05   3.61697108e-04   2.87247100e-03   2.22758099e-04
   4.79918992e-04  -2.16514245e-03   8.20880639e-04   1.42759527e-03
  -6.66909618e-04  -3.16997175e-04  -3.82243749e-03   9.43634950e-04
   4.69900609e-04  -8.94129800e-04  -3.65557717e-05  -1.71909705e-05
   5.27425436e-04   1.18778856e-03  -1.21426920e-03  -7.61609641e-04
  -1.16472598e-03  -7.81805255e-04   9.09992144e-04  -8.01282353e-04
  -9.31040733e-04   1.00945402e-03   6.33437536e-04   2.28989840e-04
  -1.32842560e-03  -3.99291108e-04  -2.36032967e-04   1.75251940e-03]
[ -6.97756943e-04  -1.10893231e-03   2.62766000e-04   3.56781238e-04
   1.75677321e-03  -1.10092387e-03   2.82538793e-04  -2.80006527e-04
   1.98057876e-03   8.19056004e-04  -3.92893387e-04   1.79645605e-04
   1.41862070e-03   9.11231153e-04   4.67222009e-04  -5.21382026e-04
  -7.71109364e-04   1.34064947e-04  -4.23447054e-04  -4.74284025e-04
  -3.06013942e-04   1.00403861e-03  -6.66754437e-04  -7.79123220e-04
   5.30231700e-05  -3.96593066e-04  -6.55765034e-05  -1.39377173e-03
  -7.85687735e-05  -5.12883707e-04  -6.50454022e-04   1.27442554e-03
   1.00552825e-04  -4.44419944e-04   3.67508130e-03  -6.81560196e-04
   8.75263067e-04  -1.11578644e-04  -3.27234971e-04   2.67772964e-04
  -1.34431839e-03  -4.48155799e-04   4.24694445e-04  -9.06035595e-04
  -6.23383239e-05  -2.38057750e-04  -6.85344712e-05  -2.84537586e-04
  -2.25873009e-04  -1.62304833e-03   8.91283969e-04  -9.82255209e-04
  -9.29353235e-04  -5.90894080e-04  -1.33039337e-03  -7.00200675e-04
   1.42907747e-03  -5.05062344e-04  -7.25523569e-04   5.88911586e-04
  -1.30606655e-04   1.23096560e-03   1.13007402e-04  -1.19767478e-03
  -1.32402685e-03   6.28656242e-04   6.24350330e-04   4.02756210e-04
  -9.00778687e-04  -7.87029159e-04   2.48968834e-03  -2.22476476e-04
   4.10496781e-04  -2.54000793e-03  -6.46749570e-04   2.60161725e-03
  -2.66906642e-03   1.59865405e-04  -3.02119274e-03   2.21058901e-04
  -8.73931218e-04  -2.34426768e-03  -4.14495909e-04  -6.88118860e-04
  -1.79060560e-04  -2.73356040e-04  -8.21772031e-04  -1.18038838e-03
   5.74196165e-04   2.18073517e-04   1.68133725e-03   2.10084429e-04
  -3.81878315e-04   4.96483175e-04  -7.55624031e-04   4.21636447e-04
  -1.06273983e-05   3.02654284e-04  -2.01198994e-03   4.85063036e-04]
[  3.59410117e-03  -7.69888575e-04  -2.40081060e-03  -5.00220958e-05
  -1.15948124e-03  -5.29076252e-03  -3.04792426e-03   4.42529243e-04
   4.46185004e-03   9.23979213e-04   1.37560256e-03  -1.56716094e-04
   5.09049743e-03   2.64884485e-03   9.13266849e-04   1.29283359e-03
  -1.51302200e-03  -3.50378617e-03   1.32467295e-03  -6.68148184e-03
   7.04754551e-04   2.54863314e-03   3.37504141e-04   7.17612565e-04
  -7.68285128e-04   2.06371257e-03   3.83957196e-03   4.05326858e-03
   6.15853001e-04  -1.55761954e-03  -4.64587472e-03   1.98972411e-03
  -1.77020673e-03  -1.71878620e-03  -1.02152221e-03  -1.95765519e-03
   2.23472901e-03  -2.57040956e-03   4.20689117e-04   2.36621150e-03
   5.05405769e-04   7.13986738e-05  -4.65897494e-04   1.20130164e-04
   7.88084930e-04   4.46945522e-03  -3.47787095e-03   8.95290286e-04
  -1.03820453e-03   1.87158235e-04   1.43648672e-03  -1.53851823e-03
  -3.93302937e-04   1.91174319e-03  -1.23988034e-03   1.60610315e-03
   6.10828109e-04  -4.44930652e-03   3.95509182e-04  -3.09743010e-03
  -2.26343609e-03  -9.48846224e-04  -2.09490815e-03  -3.41942254e-03
  -7.57872709e-04  -2.83210934e-03   6.36118930e-03  -7.35847233e-03
  -2.99596632e-05  -1.14886544e-03  -7.07567960e-04  -2.92318146e-04
  -3.50102154e-03  -2.64603790e-04   1.21053867e-03  -4.91898321e-03
  -2.83502927e-03   1.82260573e-03  -6.94822799e-03  -9.22319246e-04
  -2.00340012e-03  -2.14754278e-03  -9.83870006e-04  -3.76107916e-03
   3.55604431e-03  -1.91894162e-03   6.60636462e-04  -3.14094541e-05
   4.68840095e-04   1.47189712e-05  -2.53865519e-03  -2.39307107e-03
  -2.07046256e-03  -2.61277077e-04  -6.92192989e-04   7.51125568e-04
   4.32902307e-05  -8.99548875e-04  -1.80822579e-04   3.41181993e-03]
[ -2.08236347e-03  -2.50345166e-03  -1.91850925e-03  -1.69167214e-03
   3.40447435e-03  -1.37296063e-03  -1.63315516e-03  -8.86688184e-04
   4.30439948e-04   2.90741725e-03  -4.09140543e-04  -4.07824153e-03
   6.75291242e-03  -1.02852425e-03  -3.90130997e-04   1.18145917e-03
  -2.28585466e-03   4.86327009e-03   4.75438108e-04   6.17794879e-03
  -2.37093004e-03  -1.76537817e-03   1.78188668e-04  -5.85369649e-04
  -3.98864318e-03   3.13035888e-03  -4.99909231e-03   1.99587992e-03
  -2.07643490e-03   6.11571362e-04  -9.59772558e-04   5.15625533e-03
   8.22500442e-04   9.21417086e-04  -4.59573558e-03   1.08434958e-03
   2.49501463e-05   2.35556276e-03  -1.43875205e-03  -2.23876559e-03
  -1.58109597e-03  -3.20335291e-03   1.06723444e-03  -1.98550010e-03
  -4.25322447e-04   8.35864921e-04   5.60506742e-05  -5.42998919e-03
  -1.18823466e-03   5.87556232e-03  -4.69889399e-03  -1.70214556e-03
   1.62516139e-04   1.53537793e-03   1.06496771e-03  -1.23804566e-04
   6.50984119e-04  -1.55132345e-03  -4.70359903e-03   3.00958566e-03
   1.96565711e-03   3.94803332e-03  -3.98913352e-03   1.82207709e-03
  -3.21481470e-03  -2.30805785e-03   2.05423275e-05  -7.91921094e-03
   8.11035838e-03   1.20905414e-03  -4.02623613e-04   4.92394669e-03
  -8.10119265e-04   3.86920734e-03  -1.73007941e-03  -1.77638896e-03
  -1.07462856e-03   5.43897797e-04  -4.63676872e-03  -4.53277637e-04
  -2.57438910e-03   2.66436813e-03   2.15957989e-03  -5.27159369e-04
  -1.74157752e-03  -4.25803196e-03   1.97155890e-03  -2.00400478e-03
   2.65931967e-03  -4.75376146e-03   4.15393384e-03  -3.36964673e-04
   2.56020256e-04  -1.11301185e-03   4.20895685e-03  -1.72244478e-03
  -1.40562677e-03   1.01174845e-03  -3.44605604e-03   2.73410440e-03]
[  7.02094972e-01  -1.48549322e-02  -2.71320585e-02  -3.80843133e-02
   1.59243643e-01  -1.36972344e+00  -6.67234138e-02  -2.06346102e-02
  -1.03949559e+00  -3.40002514e-02  -8.53461865e-03   2.54087765e-02
  -4.26454581e-02  -1.87996812e-02  -6.53965957e-03  -2.20842566e-02
  -2.92781722e-02   8.89880210e-02  -6.15425073e-02  -5.16501702e-02
  -3.91444919e-04   8.19279347e-03   9.49414168e-03   9.78020020e-03
   1.10550141e-02  -3.18061095e-03  -8.66303980e-01  -1.79699506e-03
  -4.93546277e-01  -6.11159131e-02  -6.94487542e-02   1.67224240e-02
   5.63796461e-01  -4.95994687e-01  -3.65473837e-01   1.28249871e-02
   5.21216393e-01  -5.81363309e-03   2.43984699e-01  -1.51022605e-03
   1.58000067e-02   1.81397628e-02   2.03820188e-02   8.63647819e-01
  -2.05013111e-01  -1.80200357e-02  -8.23237717e-01   9.46816280e-02
  -4.38508280e-02  -1.25435281e+00   9.82270896e-01   3.65323186e-01
   6.33893535e-03   3.20367962e-02  -1.50240017e-02  -2.81206489e-01
  -2.14326456e-02   4.36967582e-01   7.25249723e-02   2.23945901e-02
  -3.09419837e-02   9.37050767e-03   1.50540173e-02  -1.59855217e-01
   1.61417842e-01  -2.08337717e-02  -5.07740304e-02  -4.69086140e-01
   2.51503270e-02  -3.51271868e-01   6.04470134e-01  -3.40682156e-02
   5.26267774e-02   6.64046258e-02  -1.03433300e-02   2.15529203e-02
   2.83171255e-02   9.74936187e-01  -1.10240504e-01   2.62575120e-01
  -5.84049046e-01  -8.30148160e-03   3.49937798e-03   4.38775659e-01
   1.36359406e+00  -6.49677932e-01  -2.55844355e-01  -2.51694210e-03
   5.36802039e-03   5.41806877e-01  -1.01979649e+00   4.41545606e-01
   3.74318026e-02   4.38575540e-03   3.44096459e-02  -3.66833508e-01
   1.49670407e-01   1.45237325e-02   4.27282006e-02  -7.11037219e-01]
[  7.26243734e-01   3.56282257e-02   6.17197931e-01   3.89602445e-02
   2.75869101e-01  -1.38752925e+00  -4.71329056e-02  -5.52761592e-02
   6.46872342e-01  -1.14460431e-01   4.01426814e-02   1.72063091e-03
  -4.85212803e-02  -7.87096913e-04  -2.90347487e-01   3.90012339e-02
  -2.11340357e-02  -6.62506521e-01  -1.49774820e-01  -8.90538096e-02
   2.83934236e-01   4.80974913e-02  -4.38362062e-01   9.11574066e-03
  -8.04217085e-02  -1.73534192e-02   2.04155892e-01  -1.74329933e-02
   7.36823916e-01  -3.87460291e-02  -9.91105959e-02  -5.86908646e-02
  -5.18702745e-01  -6.20844662e-01   3.70229855e-02   1.88393667e-02
  -4.50987488e-01  -3.86223979e-02  -1.24049343e-01  -4.51036170e-02
   9.24479783e-01  -8.19802377e-03   1.15108080e-02   2.75470883e-01
  -2.20986262e-01  -1.64174978e-02  -1.72435567e-01   1.00264609e-01
   3.19053382e-02  -5.87572575e-01   3.83263320e-01   5.72034903e-02
   8.64997227e-03  -3.62231908e-03  -1.52333044e-02  -4.60699499e-01
   2.11487468e-02  -5.10352969e-01  -1.36825725e-01  -8.47804360e-04
   3.39532010e-02   5.14754327e-03  -7.34141283e-03  -2.10007817e-01
  -2.09604979e-01   5.73481135e-02  -4.64624278e-02  -8.59692097e-01
  -2.83721741e-03   2.46034950e-01  -2.25765407e-01   3.49323675e-02
  -1.10179253e-01   8.28798488e-02  -1.21525209e-02  -1.10620923e-01
   2.84163374e-03  -8.02639988e-06   9.38743446e-03  -3.77155632e-01
  -2.27609485e-01  -4.59226146e-02  -2.73260754e-03  -2.65742183e-01
  -5.81655622e-01  -1.04794361e-01   5.76484680e-01  -4.83407304e-02
  -4.40882407e-02   2.10647762e-01  -1.76037192e-01  -4.20501053e-01
   4.39777642e-01   2.07141750e-02   9.10277769e-04  -3.04390818e-01
  -3.48197281e-01  -1.39885806e-02   3.54934931e-02   3.59746218e-01]
[-0.76139015  0.00307455 -1.10100281  0.02727181  0.42725044 -0.91526997
  0.09082937  0.0161133   0.78683388 -0.01869681  0.00889502 -0.02865721
  0.01290032 -0.01028977 -0.67214668  0.02708741 -0.01154292  0.87466556
 -0.30618328  0.00669786  0.65097654 -0.00291064 -0.80302984 -0.01162816
  0.0101563   0.007946   -0.73483205  0.01025853 -0.7689147   0.00132363
 -0.04792301  0.00686742  0.84851807  0.85615927  0.04509803 -0.02129386
 -0.76596004 -0.00964408 -0.25066057  0.00900941 -0.8026551   0.0091337
 -0.0070963  -0.87820995 -0.67224902  0.00329299  0.92957103 -0.68367255
  0.00635203 -0.99048883 -0.79122883 -0.48655832 -0.01232135  0.00403428
 -0.00645221 -0.96206051 -0.00478359  0.86922312 -0.05369297 -0.01464127
  0.00985022 -0.00267545  0.02034184 -0.07722399 -0.16845858  0.01108547
  0.01364153  1.08883476  0.02021521  0.78550732 -0.86180913 -0.01850409
 -0.04650031  0.03667361  0.01122072 -0.02705189  0.01867471 -0.81800216
  0.0186394  -0.81303644 -0.86140084 -0.00140219 -0.01427505  0.7168889
 -0.92332721 -0.98628265  1.01303208  0.01657507  0.00184804  0.92807609
  0.92286205 -0.7942335   0.91310406  0.00231155 -0.00677221 -0.81041741
 -0.75617868  0.01078998  0.05026362 -0.71053439]
[ -4.59172845e-01   2.10514832e-02  -8.09361696e-01   8.60139951e-02
   2.58759648e-01  -3.02017510e-01  -2.86910813e-02   1.10492371e-02
   5.67891359e-01  -1.62611750e-03   9.25422926e-03  -1.36144375e-02
   3.59762311e-02  -2.32001189e-02  -3.62124056e-01   1.95932155e-03
   4.19975445e-02   4.82553542e-01  -1.92988560e-01  -7.02218935e-02
   3.53976309e-01  -3.16265486e-02  -4.99549568e-01   5.09212818e-03
   6.69886470e-02  -3.76904085e-02  -5.18859446e-01  -5.38904103e-04
  -4.11504686e-01  -9.17639881e-02   2.60626227e-01  -5.40364645e-02
   4.31238592e-01   5.11660159e-01   3.83641459e-02   1.73131134e-02
  -4.83339369e-01   2.98855547e-02  -1.18313901e-01   2.65235677e-02
  -4.73700911e-01   3.84380971e-03  -2.15968844e-02  -4.54465657e-01
  -4.51106966e-01  -9.34941787e-03   3.49808127e-01  -3.59706640e-01
   4.61707264e-02  -4.76153463e-01  -5.01649082e-01  -2.76341438e-01
   6.76145218e-03  -3.88588309e-02   3.18604484e-02  -6.32256687e-01
  -1.50058921e-02   5.07336974e-01  -5.70004694e-02  -1.97691601e-02
  -5.92440888e-02   4.01159376e-02  -2.72463076e-02  -4.00471017e-02
  -1.14214785e-01  -2.45897733e-02  -4.96296287e-02   6.62687182e-01
  -6.23131776e-03   3.71655732e-01  -4.60927367e-01  -3.36520262e-02
  -2.71766949e-02   5.30512333e-02  -2.66498551e-02  -2.77370531e-02
   2.81954240e-02  -4.79731619e-01   7.17724860e-02  -4.22012508e-01
  -4.99068916e-01  -1.42219001e-02  -1.00226076e-02   4.65206861e-01
  -7.62800038e-01  -6.65708125e-01   5.95836401e-01  -2.53229514e-02
   1.10194357e-02   5.98957598e-01   5.80352247e-01  -4.76026714e-01
   5.45784175e-01  -3.82174812e-02  -6.92824880e-03  -5.00360072e-01
  -4.09945399e-01  -7.72785442e-03   3.52455452e-02  -3.28582227e-01]
[ -8.31615701e-02  -5.08257654e-06  -1.48173705e-01   2.06920621e-03
   4.31991257e-02  -9.27946419e-02   3.07945418e-03   2.27391766e-03
   8.87652785e-02  -2.36913771e-03  -8.89986567e-03  -7.28847878e-03
  -3.52603756e-03  -3.53887957e-03  -7.01510757e-02   4.11469163e-03
  -2.02726165e-04   8.95674154e-02  -3.44684161e-02  -3.77440290e-03
   7.16631487e-02  -9.40908305e-03  -8.34423676e-02  -4.76901745e-03
   8.71250406e-03   4.74264054e-03  -8.34549591e-02   6.62447605e-03
  -8.12957212e-02  -7.62459915e-03   2.05044597e-02  -3.66030494e-03
   7.89713264e-02   8.98222551e-02  -2.79603340e-02  -1.25778476e-02
  -8.63121450e-02   3.45953205e-03  -2.10468452e-02   4.78456169e-03
  -8.65496472e-02   7.94557389e-03  -3.76424752e-03  -9.62779522e-02
  -8.36118385e-02  -2.18770839e-03   9.31416005e-02  -6.89726844e-02
  -7.03453727e-04  -1.06627494e-01  -8.36869851e-02  -5.00325970e-02
  -4.62886598e-03  -4.84075135e-04   5.34421951e-03  -1.11787789e-01
  -7.06624705e-03   9.79184508e-02  -8.13800376e-03  -9.16657317e-03
  -6.01426000e-03  -4.51603497e-04  -3.95781780e-03  -7.82886706e-03
  -2.30126251e-02  -3.46680800e-03  -8.09597410e-03   1.28931448e-01
  -2.04281975e-03   8.05077180e-02  -8.88393223e-02  -1.91756804e-03
  -9.04005673e-03   5.42356260e-03   7.04787963e-04  -1.56219234e-03
   6.71189558e-03  -8.97205994e-02  -2.22808425e-03  -8.58102217e-02
  -9.11225230e-02  -7.91631266e-03  -6.67115953e-03   8.49158540e-02
  -9.37988833e-02  -1.14251167e-01   1.13516517e-01  -4.81038541e-03
  -3.14803072e-03   1.01813026e-01   1.01851277e-01  -9.69957486e-02
   9.74132344e-02  -6.99625630e-03  -1.39043783e-03  -8.27897117e-02
  -7.57123232e-02   1.28552865e-03   5.80535643e-03  -7.38013685e-02]
[  5.09604551e-02   1.85695977e-03   2.25902125e-02   8.18718283e-04
   2.26240829e-02  -1.27432436e-01   1.68605205e-02  -2.10863054e-02
   1.38689457e-02  -1.14663681e-02  -2.89061107e-02  -1.19490745e-02
  -1.53070912e-02  -2.67202388e-02  -2.29430571e-02  -1.22139649e-02
  -1.41074238e-02  -4.13896888e-02  -1.68428477e-02  -1.74343102e-02
   2.62515601e-02  -4.98014735e-03  -3.79857123e-02   1.65820331e-03
  -1.64209511e-02  -7.93520547e-03   9.34253389e-04   9.86629911e-03
   5.66726439e-02  -1.75623386e-03  -3.99979716e-03  -2.09050048e-02
  -3.27923857e-02  -3.62296402e-02  -4.52674888e-02  -3.59851564e-03
  -3.87082845e-02  -1.12447366e-02   1.35466049e-03  -1.95466559e-02
   5.61521873e-02   3.84022738e-03   1.92775659e-03   1.33447945e-02
  -1.93862207e-02  -9.18068737e-03   1.13527579e-02   6.02809829e-04
  -2.26770137e-02  -4.53263372e-02   1.96996722e-02   1.53234750e-02
   1.34670325e-02   1.14596067e-02   4.68928739e-03  -1.60069112e-02
  -1.53412083e-02  -6.51904643e-02   1.30199315e-02  -1.09520899e-02
   7.74423638e-03  -3.40009900e-03   9.71415918e-03  -2.68094409e-02
  -1.56521704e-02   1.86450407e-02  -1.05853134e-04  -7.60065764e-02
  -1.38639100e-02   3.17937508e-02  -5.05479351e-02  -1.28470603e-02
  -2.72078589e-02   4.62015197e-02  -1.41201420e-02  -9.57235787e-03
   1.05674507e-03  -5.83513454e-03   2.17783600e-02  -2.48403568e-02
  -2.43201517e-02  -1.50515260e-02   1.44583285e-02  -2.51784194e-02
  -3.03904768e-02   9.66021046e-03   2.91845724e-02  -2.36073602e-02
   9.45023261e-03   2.27208827e-02  -4.90916334e-02  -1.98710412e-02
   3.37664187e-02   2.18349639e-02   2.29984224e-02  -1.85592156e-02
  -2.85151284e-02  -6.78711990e-03   1.18146697e-02   2.38482133e-02]
[ -4.99559275e-04   1.83539838e-01  -1.63697116e-02  -9.41673100e-01
   6.02711216e-02   6.56782370e-03  -2.95046880e-03  -1.81931987e-01
   8.00594594e-03  -1.37714699e-01   6.66527629e-01   4.81677592e-01
  -9.99973565e-02  -2.35487357e-01  -1.18140364e-02  -1.08047053e-01
   5.59583187e-01  -3.37013602e-02  -4.98099253e-02  -8.92016888e-01
   2.32134503e-03  -9.72429633e-01  -1.16939852e-02   2.42289267e-02
  -9.21969056e-01   9.12213564e-01  -1.43987173e-03  -8.88993442e-01
   1.31658223e-02  -1.02311382e-02  -3.11376005e-02  -8.38589251e-01
  -6.25409707e-02  -2.65595373e-02   4.93079722e-02  -2.88542449e-01
  -1.93684234e-03  -5.51015139e-01   6.84515312e-02  -7.24735856e-01
   7.58815743e-03   1.04128814e+00   5.24199545e-01  -1.30388857e-04
  -1.20194945e-02   5.77075332e-02  -3.59814265e-04  -1.61403045e-02
   4.36210603e-01  -1.57556310e-02  -4.92047518e-02   7.66534824e-03
  -6.45141184e-01  -4.26024348e-01   3.88205796e-01   3.47079546e-03
   3.31210762e-01  -2.86369920e-02   1.26310199e-01   7.53782988e-01
   1.10293412e+00   7.03542471e-01   8.49222243e-01   1.87887251e-02
  -4.20375429e-02   7.58362710e-01  -5.20765223e-02  -2.00275388e-02
  -7.17816412e-01   1.12504074e-02   1.13409804e-02  -2.64933556e-02
  -3.20045054e-02   6.98132664e-02  -2.77143031e-01   1.97743457e-02
   1.91891019e-03   3.46260634e-03   1.92421421e-01  -2.58139987e-03
   1.59358718e-02  -8.02252531e-01  -2.20760167e-01  -4.53249831e-03
  -4.11059186e-02   1.86742917e-02  -7.61658512e-03   8.06382358e-01
  -1.02160656e+00   5.10081416e-03   1.67202689e-02  -1.26022846e-02
   2.91740131e-02  -2.65603095e-01  -2.81440616e-01  -1.00947255e-02
   1.65406428e-02   6.71191737e-02  -7.22859949e-02   1.79391969e-02]
[  4.44929898e-02   1.60216942e-01   2.01615524e-02   1.64523110e-01
   7.44864792e-02   1.08075058e-02   1.15692548e-01  -6.79148316e-01
  -5.26203066e-02  -1.12390153e-01  -6.89201951e-01   1.87244028e-01
  -4.96785671e-01  -4.81461227e-01   4.40156162e-02  -1.58893213e-01
  -1.81806818e-01   1.83007289e-02  -2.09526107e-01  -6.09323829e-02
   5.59464693e-02   4.12236303e-01   3.80159332e-03   5.21179736e-01
  -1.36818558e-01  -1.43314883e-01  -2.03999933e-02  -2.87214518e-01
   1.13650775e-02  -4.68597544e-04   3.04869451e-02   2.50921935e-01
  -1.35506801e-02   1.90766398e-02   1.18328288e-01   5.43814540e-01
   1.03824466e-01  -4.56926912e-01   1.99983362e-03  -6.45210207e-01
  -9.47639160e-03   1.68009952e-01   6.40740514e-01  -4.67901379e-02
  -4.12907302e-02   2.71699071e-01  -1.07296063e-02  -4.34672693e-03
  -1.51550576e-01  -6.12990791e-03   6.11053072e-02   4.70910370e-02
   5.13346255e-01   1.45359421e-02  -4.10364389e-01  -7.43015334e-02
  -2.12174267e-01   2.94565633e-02   4.56970707e-02   2.99617767e-01
  -5.83878875e-01   1.75341740e-01   4.07717079e-01  -2.05156673e-02
  -1.34364188e-01  -1.96442697e-02   2.46577803e-02   3.74349505e-02
  -6.94212914e-01  -7.14689447e-03   1.00330435e-01  -1.54161854e-02
  -2.43244305e-01   3.87752838e-02  -3.88155907e-01   2.77749933e-02
  -1.57664239e-01   1.41057353e-02   3.00098062e-01  -2.11346224e-02
  -3.93693373e-02  -7.81885862e-01   8.04819524e-01   2.10869238e-02
   3.44310626e-02  -3.84330899e-02   2.85424422e-02  -2.68927991e-01
   4.46147233e-01   6.96035277e-04   3.12206075e-02  -4.48758192e-02
  -1.35179441e-02   5.80809176e-01   4.88275200e-01   5.93079813e-02
   2.37580552e-03  -7.48119116e-01   3.86215597e-02   7.83707574e-02]
[  1.97462384e-02   7.94432521e-01  -3.54135409e-07  -7.98708737e-01
   4.47358638e-02   2.13504620e-02   8.54105223e-03  -7.55021870e-01
   1.18195694e-02   3.36422354e-01  -8.13674688e-01   5.75125158e-01
  -7.69198000e-01   1.06523120e+00  -3.66396341e-03   2.53186841e-02
   7.70822942e-01  -9.04476270e-03  -1.66896358e-02   1.04943383e+00
   6.39889715e-03   8.33500981e-01  -5.16074756e-03   8.70853066e-01
  -7.19688356e-01  -8.50257814e-01   1.19006988e-02  -8.97264600e-01
   1.52727626e-02   7.82655329e-02   1.50727093e-01   1.05697477e+00
   2.02078279e-03  -1.82975587e-02  -2.08573020e-03  -1.13027883e+00
  -1.42674576e-02   9.63372231e-01  -5.10981074e-03  -8.71831238e-01
   7.99295213e-03  -7.81387091e-01   8.31652284e-01   8.13682470e-03
   1.87201530e-03  -6.36027515e-01  -6.85583148e-03  -1.27381822e-02
   8.50750566e-01   1.65020451e-02   3.97890173e-02   8.69266223e-03
   8.90362203e-01  -6.48850560e-01  -8.48635137e-01  -8.45346134e-03
   7.28827298e-01  -2.61217114e-02   3.63925010e-01   8.28811765e-01
   9.07263219e-01  -8.76377106e-01  -8.51069689e-01  -8.69059265e-02
  -3.68989594e-02   7.32642591e-01   1.87776703e-02  -1.49487518e-02
   7.88561225e-01   1.47203822e-02  -1.13408091e-02   2.25001112e-01
   1.18414208e-01   2.88667619e-01   9.74695623e-01  -1.78297292e-02
   4.27344888e-02   9.36943945e-03  -2.34136179e-01   4.84491145e-04
   4.25156672e-03   1.21889353e+00   8.82863879e-01  -3.49732861e-03
  -3.52782570e-03   2.12506652e-02  -2.67242920e-03  -7.85475075e-01
  -8.92386019e-01  -6.49687136e-04  -2.80385800e-02  -1.87842511e-02
   1.35356225e-02  -9.54653323e-01  -8.88850451e-01  -7.02386769e-03
  -1.10160736e-02   1.02700567e+00  -6.67165499e-03   2.27070376e-02]
[  1.70428138e-02   4.04959172e-01   9.92049463e-03  -5.65034688e-01
   2.39619594e-02  -5.78919686e-02   9.88710858e-03  -3.87111038e-01
  -2.67377105e-02   1.73471749e-01  -4.77321178e-01   3.06771129e-01
  -4.55100447e-01   6.15436077e-01  -4.55187215e-03   6.70533329e-02
   3.59699219e-01  -9.14274249e-03  -1.45514123e-02   7.31130600e-01
  -7.37939915e-03   4.94105160e-01   1.67598706e-02   4.57829863e-01
  -4.17309105e-01  -3.91928315e-01   2.13539926e-03  -5.05400300e-01
  -6.31624693e-03   4.65399399e-02   1.16379634e-02   6.39932930e-01
   1.81853045e-02  -2.93146800e-02  -3.43369432e-02  -9.17107046e-01
   2.17444729e-02   4.17051733e-01   5.07426588e-03  -4.49473083e-01
  -3.01231421e-03  -3.99640113e-01   4.51545954e-01   5.12395892e-03
   2.92074978e-02  -3.90690446e-01   3.05078290e-02   2.25436961e-04
   3.82598102e-01  -1.52090099e-02   2.40939353e-02   1.87299792e-02
   4.72346634e-01  -3.38239312e-01  -5.09364247e-01   2.06773612e-03
   4.01385546e-01   2.37846710e-02   2.33742803e-01   4.57053155e-01
   5.75779796e-01  -5.94492614e-01  -4.04133976e-01  -4.62597758e-02
  -4.18139249e-02   4.50639367e-01  -1.18200304e-02  -6.23236364e-03
   4.37847376e-01   1.98970595e-03  -2.80726999e-02  -1.47366810e+00
   3.53196599e-02   1.53574750e-01   5.91414094e-01  -3.36508267e-02
  -8.62143710e-02   3.00088897e-02  -1.01930417e-01  -1.30120544e-02
   1.14511140e-02   7.19597816e-01   4.92101312e-01  -6.13325089e-03
   5.50274104e-02   2.34634820e-02   4.91355779e-03  -4.37459469e-01
  -5.60987890e-01  -1.65889431e-02   1.92162395e-02  -3.83930793e-03
   3.17335618e-03  -4.25213575e-01  -5.03903329e-01   1.26109133e-02
  -1.02124840e-03   6.26142740e-01   3.20424810e-02  -3.03670056e-02]
[  6.08496647e-03   1.03139333e-01   4.75266454e-04  -8.97339359e-02
   5.67380153e-03   4.85463184e-04  -1.27953514e-02  -8.63219723e-02
   7.72424461e-03   2.30766907e-02  -1.09086215e-01   5.22117019e-02
  -8.76923352e-02   1.25321090e-01  -1.14664435e-03  -3.02142631e-02
   1.01449415e-01   1.71673601e-05  -4.08263365e-03   1.28196537e-01
   1.07855368e-02   9.49112251e-02   2.87102000e-03   1.18731268e-01
  -6.05136156e-02  -1.15629166e-01   4.85868426e-03  -1.18765704e-01
   6.22455357e-03   3.18411645e-03   7.76423980e-03   1.14137277e-01
  -7.93154351e-03  -3.97328986e-04   1.72217749e-03  -1.52059183e-01
  -9.17648431e-03   1.19739361e-01   1.06525980e-03  -8.99639353e-02
   4.25783265e-03  -8.35934728e-02   9.92144123e-02   1.85699984e-02
   6.05823798e-03  -9.44844037e-02  -7.82107934e-03   1.69640202e-02
   9.56581011e-02   9.64669976e-03   9.79428273e-03  -8.08408251e-04
   1.09245785e-01  -8.56943950e-02  -1.05440862e-01  -7.71901570e-04
   7.98377320e-02   5.08581102e-03   3.16690654e-02   1.02614835e-01
   1.03444368e-01  -9.51141641e-02  -1.19827606e-01  -2.80628982e-03
  -7.95693696e-03   8.36529955e-02   6.97765499e-03   1.39574464e-02
   8.65916014e-02   4.17818641e-03   1.59181375e-03  -2.65421480e-01
   1.31410332e-02   3.69093046e-02   1.12428613e-01  -4.82597621e-03
   2.49069966e-02   1.42707666e-02  -3.37244496e-02   5.27202617e-03
   6.91879308e-03   1.52109638e-01   1.11091562e-01  -9.34567582e-03
  -7.07564875e-03  -1.56339519e-02  -3.45117971e-03  -9.74545702e-02
  -1.16736397e-01  -9.76114441e-03   5.59977163e-03  -2.23353109e-03
  -7.35585229e-04  -1.11500666e-01  -1.05987780e-01  -7.62618706e-03
   3.54972994e-03   1.29739374e-01   6.56730682e-03   5.53422468e-03]
[ 0.01376062  0.01325121 -0.00126743 -0.04312877  0.01597291 -0.00960884
  0.01429374 -0.05902811 -0.03320251 -0.01835002 -0.05133188  0.00766106
 -0.04389203 -0.02270834 -0.01161505 -0.02225064 -0.02766809 -0.00472059
 -0.01322172 -0.04086413  0.02353408  0.05007089 -0.01450472  0.06110311
 -0.01650246 -0.01481976 -0.00894763 -0.00863927  0.01865269 -0.00018628
  0.00760445  0.01018617 -0.00543153 -0.00232683 -0.02061821 -0.01755971
 -0.02158532 -0.01403626 -0.00330489 -0.05306564  0.01481135 -0.00302186
  0.04936067  0.00881596 -0.01567987  0.01116478  0.02639807 -0.00917634
 -0.00816724 -0.01833356 -0.00144581  0.01037703  0.03451535 -0.00293779
 -0.03941176 -0.01043052 -0.00675977 -0.01339861  0.05842347  0.01827669
 -0.04106795  0.00531753  0.0156705  -0.01527438 -0.02381253  0.02185331
  0.00716476 -0.01663612 -0.05186818  0.02688463 -0.01260595 -0.0044427
 -0.04112654  0.05598331 -0.03719663  0.01249498 -0.02306353  0.00540924
  0.05374429 -0.01696466 -0.01487366 -0.05599505  0.07176593 -0.00607696
 -0.00327879 -0.00718414  0.00846128 -0.03776472  0.0528743   0.01618396
 -0.03190887 -0.01265236  0.01587357  0.04664206  0.0303792  -0.01152547
 -0.00800523 -0.05266348  0.0088331   0.02008024]
[  1.53629899e+00   2.46650919e-01  -4.41894168e-03  -1.88698435e+00
   3.73540139e+00   3.15682262e-01  -7.60975361e-01  -5.35400927e-01
   1.74066103e+00  -9.60913301e-02   1.84749138e+00  -1.88304514e-01
   4.39568996e+00   1.30248919e-01   5.47420204e-01   2.00527716e+00
  -8.81061256e-01  -1.68789136e+00   1.72084466e-01   3.56783462e+00
  -2.64962864e+00   3.11064869e-01  -3.01775885e+00   3.18708599e-01
   6.71385169e-01  -1.44453788e+00   1.81830835e+00   1.05713403e+00
  -4.03909355e-01   5.55181086e-01  -8.75881314e-01   2.19109011e+00
  -1.19096351e+00  -2.47510076e+00   2.68911958e-01   5.16160154e+00
   3.35718846e+00  -1.48153758e+00  -2.27900100e+00   1.38146475e-01
   6.23077750e-01  -9.45780158e-01  -1.20166278e+00   6.65407956e-01
  -1.72385693e+00  -2.21309352e+00  -1.79811978e+00   9.80609536e-01
  -1.52489662e+00   1.15294957e+00   2.08657098e+00  -3.10257363e+00
   6.51266158e-01  -4.98048842e-01  -1.14959431e+00  -1.08982436e-01
  -1.61830544e+00   1.18439186e+00   2.30330396e+00  -8.32228541e-01
   1.31027651e+00   2.83963513e+00   8.41684878e-01   3.41021001e-01
  -1.08167052e+00   8.50554109e-01  -1.21415138e+00   3.57113910e+00
  -1.67177069e+00  -2.30369329e+00   3.28726530e+00   3.50499105e+00
   2.56165648e+00   1.68270254e+00   9.28048253e-01   8.40493664e-02
  -8.70077372e-01   7.85195649e-01   5.73556185e+00  -1.10849535e+00
  -2.20189929e+00   4.37389898e+00  -1.90055862e-01   1.46578276e+00
   6.18259847e-01   2.98554444e+00   7.66608596e-01   1.15323377e+00
   1.86642289e+00   2.53100681e+00   4.89587307e+00  -1.19289315e+00
   3.25122786e+00   1.49791729e+00  -5.06256402e-01   1.11908245e+00
  -2.69813561e+00   1.72698545e+00   1.60420179e+00  -1.11834836e+00]
layer 1 Dense
100 100
[  4.61606681e-01   4.55114961e-01  -1.19501674e+00   6.55926323e+00
   4.66367215e-01   6.14675105e-01   3.62768054e-01   5.07642150e-01
  -2.97071606e-01   3.36814463e-01  -2.59253025e+00   6.43302262e-01
   5.40925503e-01  -3.31711364e+00   3.63311708e-01  -4.24606323e-01
  -2.38042951e+00  -5.04221106e+00  -2.13737106e+00   5.66757143e-01
  -3.46146560e+00  -7.29683518e-01  -3.81647873e+00  -1.90763307e+00
  -1.59150326e+00  -6.09751523e-01   4.47213590e-01  -2.45002285e-02
   4.90790397e-01   4.40573126e-01  -1.12887888e+01  -1.10263085e+00
   4.76307601e-01   9.50833142e-01   5.72822273e-01   2.67403460e+00
   7.02946126e-01  -2.28534508e+00  -1.69309962e+00   4.04211670e-01
   1.97608376e+00   3.10874164e-01   2.95352817e+00  -4.84541833e-01
   5.44130683e-01   5.32153726e-01   4.00886393e+00   5.10902464e-01
  -5.26503706e+00   4.19653684e-01  -5.96630871e-01   2.22830606e+00
   1.17593631e-01  -1.52854192e+00   5.01541138e-01  -6.56955302e-01
  -3.84876394e+00  -6.31734669e-01   7.00292230e-01  -1.77730489e+00
   5.45231998e-01   7.22749472e-01   5.09616613e-01  -4.15141726e+00
   4.70345736e-01  -3.98986548e-01   5.68844020e-01  -1.27286148e+00
  -4.52762991e-01  -2.96824634e-01   2.31134319e+00   3.80182177e-01
   2.80023384e+00  -1.13952279e+00   2.67223362e-03   7.06052303e+00
   1.06439912e+00   5.78535140e-01  -8.55760396e-01  -1.05133665e+00
  -3.74740988e-01  -7.38526046e-01  -2.32085156e+00  -2.48086810e-01
  -2.30124545e+00   1.82513952e+00   3.51949573e+00   5.34583330e-01
   4.18351859e-01   1.12400341e+00  -2.25385618e+00  -1.42925060e+00
  -2.56598377e+00   5.18495739e-01  -2.28406295e-01   5.18417120e-01
   2.61245894e+00  -1.01039743e+00   8.88813019e-01  -6.03428185e-01]
[ 0.10399804  0.16667005  0.6293456   2.78038764  0.14883673 -1.98463261
  2.41280818  0.18261547 -3.25884342 -0.02466043 -1.06212807 -1.73080277
  0.13951018 -1.11072445  1.38816476 -0.64358366 -1.53434956 -0.90073383
 -0.27838245  0.17603783  0.61153722  0.14262328  1.82108116  1.18758416
  0.95664912  0.34402588  0.10854988 -0.47778478  0.15654857  0.30300614
  5.22615957 -0.70303625  0.09444987 -4.68634796  0.11271752 -0.37080404
  0.38817394 -0.41290057  0.15138483 -1.37673461 -1.35845339  0.48275182
  3.07836866 -3.0457201   0.12401311  0.17358947  0.38225034  0.12975934
 -0.1757642  -0.23308411 -0.89716107 -0.55433917  0.72367519 -2.14960933
  0.16031298  0.05184172 -0.81900936  0.10274374 -0.1178275  -0.34694096
  0.16665611  0.50041789  0.18883654  0.49605715  0.08961399 -0.04696346
  0.17185122 -1.55060363  1.63395345 -0.0237938   0.39429054  0.23681943
  1.44661582 -0.09658964 -1.8918798  -0.00860596  0.17129672  0.11590917
  0.44002163  0.51932937 -0.75872046  2.97851968  0.98651099 -0.13233736
 -0.4162938   2.17860174  1.38032258  0.12025745  1.06446946  0.80504143
  0.23114872  5.02950382  2.1156106   0.15498298  1.36825526  0.13086972
  0.72936511 -0.12202208 -2.13893795 -0.58790284]
[ 0.10632859  0.06659968  0.56530905  3.04563189  0.12342045  0.2673502
  0.46519133  0.08262976 -0.23528758  0.01524972 -0.0803578   0.42674273
  0.06052637  0.27987736 -0.19894251  0.14659464  1.62420905  0.64368647
  0.07739882  0.13039276 -0.12755032  0.23897724 -0.14717489 -0.20846502
 -0.56986189  0.6583994   0.04173409 -0.01337573  0.10904467 -0.26782802
  1.46934462  0.26165554  0.0795686   0.01143667  0.08284789  1.17758977
  0.30166903  0.41212931 -0.76694715 -0.2441733   0.50007546  0.01714933
 -0.97254431  0.40613818  0.09984808  0.033487    0.60700071  0.07566253
 -0.51463848 -0.22373948 -0.10533507  0.57277203 -0.04533235 -0.53823256
  0.06606489  0.47852209 -1.29379869  0.26125473  0.66405624 -0.50428194
  0.15117465 -0.17050487  0.05728251 -0.29921877  0.11566816 -1.27165258
  0.12273212  0.25954846  0.20655276  0.23835808 -1.117558    0.12799723
 -0.08910927  0.23637015 -0.27862194  3.67496085 -0.02185574  0.13376299
  0.88409591  0.05109508 -1.19643116 -0.24856581  0.19215117  4.65197325
 -0.66956353  0.74207783 -0.70616698  0.15091585  0.8057422   0.34079739
  0.25396669  0.04107818  0.50490648  0.07995352 -0.20122491  0.13173671
  0.18859658  0.03712058  0.53893203  0.02326171]
[ 0.12572879  0.04187853 -1.7331835   1.54010522  0.04627249 -0.862849
 -0.90027869  0.08374135  2.13028884  0.23081422 -0.29653424  0.83495271
  0.10668568  0.64877152 -0.54588848 -0.89443523  0.48332337 -0.40836927
 -0.1526413   0.07634261 -2.03979087  1.26975024 -0.64355618  0.37482494
  0.25491843  0.2552506   0.03557611 -0.87893265  0.1270557   2.13139939
 -4.62675619  0.77961725  0.09163654 -1.42587578  0.06028445  0.03565251
  0.31849688 -0.09597536 -0.41614929 -0.69184124  0.23820713 -0.6077286
 -1.15098429  7.84337234  0.07036131  0.11904591 -0.36334819  0.05515247
 -0.12334647 -0.65217191  0.7428596  -0.04298216  0.8949306   1.57036722
  0.04376315  0.08933283 -0.79457587 -0.49040675  0.9295938  -0.06449905
  0.09532819 -0.20767412  0.07443812 -0.44939616  0.11952277 -0.709517
  0.11821064  0.10544094 -0.71009189  2.00830317 -0.31669801  0.02482722
 -0.22988202 -1.44988453 -0.07116921  1.01741636  0.18282558  0.07789634
 -0.69101018 -0.90341836  0.1305296  -2.18664265 -0.09905178 -0.79356617
  0.44206622 -1.45214736  0.42425203  0.07369138 -1.00658941  0.0358568
 -0.58607781  0.73665285  0.50776988  0.09510412  0.03363195  0.0833893
 -0.54901457  1.16817069  0.80818146  0.20090972]
[  0.56662512   0.60716486  -0.78310853   6.49402285   0.64681286
  -1.3864063    2.28510451   0.5763182    2.81885076  -0.96358967
   1.16628408   0.16209437   0.53248596  -0.10789952   1.98408473
  -1.44572473   0.12097718  -0.35086966  -4.01252079   0.56642026
   5.47637033  -3.54644179  -0.55951732   0.16699588   1.07718921
   0.6882481    0.59744471  -0.78712738   0.60335952   1.00310683
  11.47041702  -0.82451665   0.54017669  -1.33562827   0.54202366
   1.03838229  -0.53659868  -1.87768424  -1.89526236  -1.07091844
   1.37144899   0.30734754  -6.32443476  -1.24002874   0.53476852
   0.53963482  -1.15785456   0.58531314  -2.3337431    1.63680935
  -0.6594125    1.23104155   0.0925644    1.41005337   0.58861238
  -1.51027644   2.66026545   0.70412976   3.53745031  -3.7359283
   0.56173122   0.42321518   0.5630483    0.63949037   0.54653227
  -1.94118786   0.60182095  -1.98347294   1.90915811  -2.16431761
   1.25155675   0.51571494  -0.22226675   0.33587825  -1.83477521
  -4.32204771  -0.16735443   0.61890739   0.70534432   0.39751503
  -1.30324244   0.16078925  -1.87681484   2.27441359   0.47631899
  -1.91229129   1.7330488    0.55729008   2.07741714  -0.95132786
   5.83115196  -0.58898222  -0.69791299   0.5731312    2.36794686
   0.58857417  -2.03124142  -1.15880239  -0.54105204  -1.65361786]
[ 0.12062731  0.1512363  -0.73858279 -0.33791447  0.10147344  0.18200569
 -0.3717691   0.15797997  0.07948314  0.90472454 -0.32188269  0.39631566
  0.11061651 -0.24853188 -0.60210186 -0.2575703  -1.8705976  -0.26934785
 -0.35031942  0.16514316 -0.77457052  0.42599612 -1.29776764  1.42259502
  0.40257761 -2.67431283  0.12590112  0.67099839  0.16573517  0.5762192
 -5.89486647 -1.47644627  0.11347905  0.05933567  0.14296445  0.58659112
  0.42462283 -1.86498094  1.33706486  0.1923445   0.26274157 -0.08592061
  0.46914476  0.15139484  0.07873911  0.14524618  0.05251336  0.06529252
 -0.13583043  0.89968646  0.70731109  1.41473663 -0.07029721  1.0405345
  0.09953957  1.04910743 -0.03036439 -0.07733776  0.20915334  0.24551357
  0.14314607  0.0560443   0.12919465 -0.30605179  0.15416795  0.02645579
  0.13356397  0.78778833  0.50131756  0.48356655  0.85556108  0.12196779
 -2.12015772 -1.14202571  0.02473572  1.7525456  -0.86536711  0.16016227
 -0.24722978  1.0173986   0.77192307  0.18367608 -0.175193   -1.72833228
  1.12050927  0.76244295  0.38877776  0.1073361   1.00659192 -1.38100088
  0.05089831 -0.06844667 -4.34404564  0.08939674 -0.27290583  0.08244296
 -0.2984955   0.58654815  0.11872136 -0.16296436]
[  1.68997291e-02  -1.02326432e-02  -7.26676404e-01   1.01200056e+00
   9.21875536e-02  -1.69451904e+00   7.49428093e-01   4.32431744e-03
  -1.10555804e+00   1.68810987e+00  -2.99171716e-01   7.96961904e-01
   9.54094380e-02  -1.29663453e-01  -1.39193892e-01   6.44479036e-01
  -2.73576021e-01   1.10713589e+00  -1.79570484e+00   3.40901352e-02
  -6.47414267e-01  -2.11124808e-01  -9.53556836e-01   1.09982717e+00
   4.00794864e-01  -1.05101395e+00   4.95302491e-02   7.92929411e-01
   7.17318133e-02   3.75777543e-01  -2.85541511e+00   2.80107826e-01
   2.81825215e-02   1.99118882e-01   4.54767570e-02   1.05791903e+00
   2.15306306e+00   1.67565310e+00   4.22220141e-01   5.87769687e-01
  -3.05477321e-01  -8.53057057e-02   1.12701666e+00  -2.76118457e-01
   1.19917504e-01   2.71194503e-02  -3.18322659e-01   3.08725312e-02
  -5.30797839e-01   5.02490520e-01   6.25296354e-01   1.18659818e+00
   2.51855373e-01   1.79049873e+00   1.06104553e-01  -8.51687312e-01
  -2.57220864e+00   1.92376271e-01  -3.05556804e-01  -4.53542590e-01
   7.95723125e-02  -6.39420629e-01   1.00938492e-01   5.46505630e-01
   9.79179144e-02   1.16623938e+00   7.96284676e-02   3.56506228e+00
   3.10668135e+00   1.28765181e-01  -8.05474997e-01   4.36242260e-02
  -1.71859872e+00  -2.60774821e-01  -8.78462940e-02  -2.04439282e+00
   1.16085446e+00   4.20993865e-02  -1.96033049e+00  -7.31474012e-02
  -1.68476474e+00   1.72613099e-01   1.20484126e+00   2.60913342e-01
   6.42804086e-01   8.42048168e-01   9.37655866e-01   7.02424422e-02
  -4.09796871e-02   1.18000138e+00  -1.26205146e-01  -1.13117497e-03
   1.22696710e+00   1.20988563e-01  -7.76339591e-01   1.27854213e-01
  -7.56208539e-01  -1.35812116e+00  -7.19627082e-01   5.81486702e-01]
[  1.25251874e-01   7.69849047e-02   1.62041545e+00  -1.32812014e+01
   1.36125654e-01   6.08663607e+00  -6.89005709e+00   1.53252974e-01
   1.82108402e+00   2.11767030e+00  -4.33485687e-01  -2.56638622e+00
   1.43811539e-01   4.28608328e-01  -9.86864686e-01   1.17183828e+00
  -1.45533311e+00   1.32427406e+00  -2.56350875e+00   1.23303115e-01
   3.39713335e+00  -1.70595300e+00   2.93158603e+00  -1.46535456e+00
  -2.03561592e+00  -7.06447780e-01   1.51071921e-01   1.03683543e+00
   1.35860622e-01   2.10965848e+00   6.33780909e+00   2.85202861e-02
   1.23785824e-01   2.10097933e+00   1.17641859e-01  -1.52400982e+00
  -2.22061604e-01   1.04599223e-01   1.14276958e+00  -1.05907357e+00
  -7.85257912e+00   1.68962204e+00   4.04589510e+00  -1.01453199e+01
   1.35270104e-01   1.22180164e-01   1.00564027e+00   1.54421017e-01
  -4.34083641e-01   2.80002594e-01   4.39293337e+00   5.11243582e-01
  -7.64407015e+00   3.38654906e-01   8.57237726e-02  -9.23510075e-01
  -7.28932142e-01   5.33152759e-01  -1.09680414e+00   8.50897670e-01
   1.30651832e-01   1.05547106e+00   1.62090823e-01  -1.35565853e+00
   1.11340992e-01   2.98892307e+00   8.16212147e-02  -1.75569668e-01
   2.30985418e-01   2.01583579e-01   3.63413781e-01   5.74886911e-02
   2.76320744e+00  -8.47114468e+00   1.58129156e+00  -2.68573141e+00
  -7.22358286e-01   6.85203895e-02   1.69899201e+00  -2.67410946e+00
  -1.88321597e-03   1.98435712e+00  -4.08922338e+00  -1.34426689e+00
   4.51560140e-01  -1.62260532e+00  -5.90083480e-01   1.29545227e-01
   6.54093027e-01  -1.07786620e+00  -2.41752580e-01   1.63260770e+00
  -7.14167118e-01   1.61223516e-01   7.97571614e-02   1.21213876e-01
   4.03556776e+00   4.15760326e+00  -2.97424221e+00   1.29467022e+00]
[ 0.72412032  0.80004704 -0.216378   -2.7054441   0.71489    -0.40628266
  0.02797613  0.76537102 -0.12589888 -0.89302319  1.12684333 -0.55665988
  0.718247    0.57804769  0.39536485  0.05671467  1.04603732  1.44532049
  0.77593696  0.69661659 -0.5400117  -0.15274209 -0.19131446 -0.41685805
  0.11437939  0.69574207  0.77327961  0.29260695  0.74127167 -0.05523999
 -4.55885792 -0.04279389  0.75939429  0.08692989  0.71341664 -1.08674598
  1.20237553  0.29231888  0.46467558  0.33969691 -0.87958574  0.03067645
 -8.8674202  -0.17626046  0.74237001  0.71092844  0.44187289  0.68675101
 -6.44403744 -0.03937372 -0.45807731 -0.39256918  0.4529216  -0.04763399
  0.6376847   0.23061708 -2.52213454 -0.72795761  0.03761597  1.08963096
  0.72142011 -0.0547822   0.76457518  0.30025515  0.67425007  1.48825681
  0.65712965  0.2546851   0.75586587 -0.87777466 -0.68685645  0.67245293
  0.29892957  0.40500516  0.3716782  -1.29291546 -0.59494615  0.63216591
  0.5853368   1.38665152 -1.5719986   0.07308959 -0.16242796 -0.30063275
  0.61379617  0.61614305 -2.16073298  0.72126544  0.64327258 -0.12717517
 -0.90494496  0.15142114 -0.6257323   0.70599216 -0.72015148  0.72523874
 -0.15684733  0.09571965 -0.62501949 -0.45490369]
[ 0.17458297  0.15953197  1.1423738  -6.34696293  0.10010563 -1.84735668
 -2.91754031  0.08097663  1.49423993  1.30555284 -0.82311302 -1.54415476
  0.14696744  1.5142175   2.53665233  0.04792384 -5.49020433 -1.21251678
  0.94023943  0.11624467  1.09043813 -0.25988689 -0.37479097  0.78555828
  2.17455959  1.18273199  0.11651708  0.51953059  0.07966325 -1.40271592
  3.97608948  1.15493464  0.08562633 -2.46160889  0.13148127  0.23116666
 -1.44327939 -0.10120286  0.52767694 -1.4839257  -0.78319418 -2.13194013
  1.34111106  3.29537868  0.08473361  0.19570115  1.00710905  0.08521532
  2.16096711 -1.15936649 -0.46508598 -0.12215731 -1.2436173   3.16027403
  0.0569655  -0.10384096 -1.70716298  0.93954879 -1.31922674  0.9259671
  0.10413141 -0.56359124  0.10705645 -1.22171295  0.10480857  0.6000585
  0.15049013  0.46535453 -3.65279341  2.0716064  -0.09119448  0.08586015
 -0.75917715  1.14629591  1.19546247  0.13382131  2.89642596  0.1295971
  0.49054837 -2.13866782 -1.38963068 -0.45229557  2.74388051  1.62062347
 -0.79614532 -0.35078079  0.77986205  0.10715155 -0.99057072 -0.36564878
 -1.25072014  1.14818549 -0.62844592  0.09137155  1.02433717  0.15379217
  0.81245345 -0.62954932 -1.46742105 -2.12372375]
[ 0.30906263  0.30084592 -0.30376261  1.25979578  0.20532188 -3.79559922
  0.29874614  0.23969246 -1.53753591 -0.89625156 -0.16647513  0.66524297
  0.30630973 -0.49886802  0.46424904  1.31557608  0.04401181 -0.33644366
  1.20912719  0.22210045  1.88833559  1.12428498  0.47173277 -0.1739044
  0.80375689  0.44650868  0.28775513  0.70075792  0.31216925  1.87466323
  6.58339405  0.09036706  0.25454363 -1.31468797  0.21676755 -0.47894973
 -0.14490266  0.65877944 -1.10893965 -2.68782783  1.10909271 -0.69683957
  0.59262854 -1.49485528  0.2260399   0.29921061  0.07382991  0.19355734
  1.09236109  0.28176519 -2.79726481 -0.50630718  2.38202143  0.86684507
  0.18131518 -0.03003553  0.73196834  0.9725917  -1.07506251  0.51864117
  0.21290602  0.18642387  0.17797792  0.07454319  0.27251059 -1.16189969
  0.2608521  -0.06249722 -0.22537868  0.83477718 -0.49911264  0.37689111
  0.24180035  2.2535646  -0.40084147 -0.95277476 -0.09570091  0.27359223
  0.09191658  1.06777775 -0.57433033  2.51517177  1.48168683  0.90104133
 -0.57143629  1.7927444   1.94186187  0.1952662   1.0460974  -0.55734289
 -0.01203077 -1.8704952   1.38768971  0.21554428  1.18702197  0.27859318
 -0.45075592  0.67171168  0.37456426 -0.36208811]
[ 0.49047965  0.54249072  0.17605002  3.57023978  0.49806762 -1.42897236
  2.72656894  0.4372142   5.1872716  -1.47083414  0.56615138 -0.35609189
  0.43826151 -1.42651141  0.55489123 -3.5532105   0.55422425  0.25876084
 -4.78910065  0.47299996  1.46534157 -1.58234918  2.13190126 -0.04450184
  2.23451638 -0.173595    0.4747971   1.38222039  0.42050281  0.66847557
  0.71971303 -0.27057102  0.48133188  2.33206654  0.43627289 -1.22515774
 -1.63688707 -0.51794869 -0.95127332 -3.22432303  1.79712415  1.6735605
  2.64426279 -1.07927191  0.4633339   0.52603763 -0.87494218  0.447972
  1.88163948 -0.29213443  1.68413103 -0.23768528  2.87690473 -1.2986629
  0.42647031  0.82470453  0.73680198  0.23274796 -1.10700083 -0.40930277
  0.51887047  0.83126771  0.39952114 -0.81815445  0.44424075 -1.59408104
  0.49303925  0.38098374  0.06095761  2.38941503 -0.28564593  0.55527449
 -2.35296297 -3.14569306 -2.9460876  -1.27050233  0.73213929  0.4648717
 -0.6781767   0.99845058 -0.54570401 -0.75548631 -2.24599743  0.21378991
  0.33094391  1.13641822  0.36418155  0.4587861   0.6863454   0.15876934
 -0.36180323 -4.12776136  0.16338007  0.47089809 -1.78842342  0.50829673
  2.05377126  5.10971117  2.8381424  -0.5658493 ]
[ 0.55775881  0.6113137  -0.98391652 -3.99847221  0.50045782  2.71913242
  0.46096355  0.47558141  1.09300017  0.30808139 -0.1236053  -1.18183458
  0.47488064  0.56967574 -0.64940447 -1.6317513  -2.22980976  0.47814345
 -3.7351265   0.48491183 -1.12897992  0.05762257 -0.65360653 -1.60795105
  0.17593564  0.59096378  0.54636127 -0.03525751  0.49449262  1.77874625
 -6.2970643  -0.10500088  0.49513331 -1.06049633  0.51700437  0.28240657
 -1.77558815 -0.49224904  1.03490198 -1.01695943 -4.00346947 -1.06725383
  0.03222134 -4.27500725  0.48547488  0.42184502  0.87110245  0.50414258
 -1.18115699 -0.46996781  1.50465989  0.31467137 -1.33661783 -0.73327178
  0.57026613  0.39947987  0.52466691 -1.94286704 -0.12438765 -0.72101235
  0.45139414  0.75061405  0.44482324 -0.27395386  0.50398463  1.82686961
  0.44786501 -1.03859818 -0.74775368 -1.82920814  0.25800192  0.53498113
 -1.04479802 -1.79631364  0.80825818 -0.39849204 -0.35925117  0.54073036
 -1.96314073 -0.11391184  0.24443693  2.05763745 -2.02931523 -0.7753005
 -0.62203926 -0.09152632 -1.13455045  0.50569999 -0.85080826  0.14090244
 -0.03313667  1.58715034 -1.96298897  0.50664985 -0.06039279  0.51160371
  0.03312074  0.71267724 -2.90200019  1.63322759]
[ 0.50146335  0.65539497  0.36931676  8.30401897  0.42315173 -3.31452179
  3.34979725  0.52289164 -0.57802683  1.7937423   0.42446887  0.98052728
  0.37150139 -1.17555058 -3.17783117 -0.29532862  3.11451268  0.36033088
 -3.08593345  0.46911067 -1.55032063 -0.03733204  0.20782757 -0.3610394
  0.92539907  0.36868659  0.49530742  0.41774762  0.5097329  -1.98901439
 -2.82869029  0.23554203  0.45206723  0.05079981  0.44170108  0.27886125
 -0.59787786 -0.42452139 -1.00277352  4.50616598  3.27995825  1.56241226
  0.49523833  0.55748999  0.43375012  0.36493936  0.04107381  0.41063035
  0.44032618 -0.26672304 -0.49812716 -0.08529117  1.52410042  0.63446712
  0.43111357 -0.24801056  0.88891071 -0.21413989  1.44078803 -0.08037796
  0.44218826 -1.37993276  0.48367089  0.04502466  0.42941651 -1.78926051
  0.42502263 -0.46500832  3.45248485 -0.73154104  0.05729952  0.23826884
 -0.02623477  1.98614812 -3.3952961   0.19623204 -0.905653    0.42032614
 -1.45073891  0.52607679 -0.02436971  0.52785921 -0.0991611   0.48588195
  0.43345451 -0.76809323  0.0383696   0.50288635 -0.016868    0.04561018
 -0.70318061  0.52893239  0.2018238   0.48825878  1.59735394  0.41740045
 -0.02763575 -0.83783364  2.53815603  1.4586978 ]
[  7.12057650e-02   1.27329439e-01  -1.04644644e+00  -5.88269949e+00
   7.66424537e-02   1.17474958e-01  -1.05073702e+00   7.59627521e-02
  -9.31509137e-01   1.42173648e-01   1.83204305e+00  -1.21689296e+00
   9.58100334e-02   2.20307603e-01  -3.16713953e+00  -6.55283928e-01
   1.47131681e+00  -1.86941355e-01   1.59997559e+00   1.29392311e-01
  -1.14140177e+00  -1.61427474e+00  -2.65669870e+00   7.88026989e-01
  -2.29710031e+00  -3.94659019e+00   1.18281953e-01  -6.27537146e-02
   7.00062215e-02  -7.11003661e-01  -1.88891487e+01  -3.93883848e+00
   4.49063890e-02  -1.12442815e+00   1.33472592e-01   5.09251237e-01
   3.00963855e+00  -3.62985587e+00   3.13208199e+00   2.05943179e+00
   9.04087245e-01   6.41453173e-03  -1.52431190e+00   6.18459769e-02
   9.43268612e-02   4.51614447e-02   2.50133562e+00   1.05686113e-01
  -4.85987711e+00   2.15417072e-01   1.20994651e+00   1.03237903e+00
  -6.82896137e-01   9.00424898e-01   8.13156217e-02  -2.90772151e-02
  -5.63977194e+00  -2.60952044e+00   1.62912011e+00   1.14282525e+00
   1.38478771e-01   2.15874031e-01   1.06981717e-01   1.89776254e+00
   6.67259544e-02   5.70685959e+00   1.25020042e-01  -5.65691710e-01
   4.86358434e-01  -1.64572728e+00   1.37812233e+00   6.84986562e-02
  -1.79928303e+00  -2.27366328e+00   8.88388038e-01   1.15753114e+00
  -1.34027696e+00   1.03455149e-01  -3.95552814e-01   3.45096660e+00
   8.26404929e-01   9.57319081e-01  -1.82779086e+00  -9.68239212e+00
   4.25286800e-01  -1.70540953e+00  -5.60689163e+00   7.72126466e-02
   5.94881356e-01  -6.14864528e-01  -1.15073755e-01   8.83649528e-01
  -5.98639584e+00   1.54879734e-01  -7.88115978e-01   1.15976796e-01
  -1.56044841e+00  -1.46418512e+00  -1.79694247e+00  -4.96656179e-01]
[ 0.15344349  0.15641624  1.52825463 -0.03140362  0.18813927  1.71977448
 -1.42877305  0.20781653  1.352265    1.09272265 -0.43145502 -0.16440016
  0.29364258 -1.78607106  0.70895988 -0.13344491  0.98359454  2.20681596
  0.89362133  0.31461701  1.45545781  1.67144227  0.52670711 -1.74644542
  0.77155048 -1.14761472  0.14435256  0.40307418  0.25266552 -1.78155231
  0.38939601 -0.72049791  0.2353324   1.27138352  0.19959524 -0.22019821
 -0.94905251 -0.05016366 -0.52500862 -2.68522525  2.22055387 -0.15270196
  1.27032924  1.96314108  0.27335483  0.33355036  0.40490124  0.19402325
  0.14507324 -0.70797569  1.26863611  0.17700619 -0.18626763 -1.01259851
  0.25263053 -0.7800107   1.21831501  0.40929207 -1.46573591 -0.13112646
  0.23389843  1.8772819   0.17631996  1.45057654  0.17758214  1.84879613
  0.28190964  0.87286556 -0.98261893  0.30177808  0.34278032  0.40306351
  0.74915922  3.78449416  2.2634964  -1.67106605  0.66953713  0.27871761
  0.74997997  0.39564043 -0.85692036  2.83234477  0.88975316  0.42025036
 -0.30240819  0.93960583  1.82179034  0.16986206 -0.24400049 -0.15582518
 -0.95473599 -1.13547599  0.58260417  0.2506808  -1.43826449  0.2141234
  2.59889817  1.90592396  1.44757915 -0.8256371 ]
[  0.06512026   0.12788327  -3.49172306  10.52887154   0.02326844
  -1.17993212   1.633268     0.06108528   2.22132683  -1.10411143
   1.52279615   1.42198825   0.07271346  -0.08823261  -5.05277109
  -0.94637203   3.10390449   0.8272931   11.60968304   0.10283915
   0.35390002   1.15023494   0.09604724   0.96961296  -0.35591638
  -0.24857174   0.08305755  -0.75296074   0.06321042   2.23933673
  -5.71891975   1.01569068   0.10739089   3.77748179   0.08885173
   1.09655797   0.23704505  -0.2981075   -3.38693357  -2.92041063
   0.4216578    0.38473719  -4.4337244    1.61418498   0.10783854
   0.06483218  -1.30329978   0.04284067   0.02777448  -0.04151301
   0.12557775   0.12329825   2.99930882   0.05377112   0.02260677
   0.54627126  -0.02235147   0.3853083    1.88686919  -0.13099293
   0.04769987  -2.61695433   0.03248439  -1.08317471   0.10187639
  -2.01918864   0.12953955   0.87329113  -1.46902812  -3.57240248
  -1.04342687   0.02359054  -0.22062591   0.28152081  -0.54227501
   2.09387016   0.03194188   0.05666151  -0.36421025  -0.03856964
  -0.15593277  -0.99114287  -0.65544248   0.9465304    1.02939367
   0.48671588  -0.88244963   0.09404226  -0.85875988   0.20954385
  -0.35536748  -6.24623156   0.45868754   0.13534144   0.47402886
   0.15315764  -1.83409441  -0.57731938   5.86670589  -2.49479866]
[  0.11288068   0.09103633   4.66139841 -15.27218819   0.09165804
  -1.26586592  -2.027457     0.13103516  -0.42895883  -0.54852855
   3.34977388  -4.30807066   0.12498928   1.94291842   4.12118673
   1.10639322  -2.87470412  -0.40959775   1.60535848   0.12222519
   2.59831238  -2.20614266   0.56362593  -3.98383665   2.4994638
  -1.79182911   0.07456593   3.37011385   0.09096629  -0.57938057
   3.66045928   0.34989005   0.08216432  -0.97850156   0.05337439
   4.51580381  -1.50044096  -1.95177341   2.92464781   0.45238942
  -3.14633656  -0.15200067  -7.08002901  -1.04958749   0.16134547
   0.12280137   3.53595829   0.09557      1.24100292  -9.63607025
   3.54211187  -0.65186155  -2.63710427   2.14911938   0.09137558
   2.16900444   5.12330341   0.85365921   2.13554168   5.46868229
   0.17262992  -1.06144583   0.08036899  -3.37856722   0.11812101
  18.29972076   0.09976716  -1.88159883  -1.17626941  -2.00603294
  -1.07383561   0.08348441  -2.39561152  -2.43666744  -0.57330066
   9.65059662   7.26153326   0.11204972  -0.38493219  -1.79096556
   0.63453311   0.14867637  -2.5807879   -6.48739004   7.30535936
  -4.79493093  -5.7200613    0.07726034  -3.1828692    1.63046312
   2.76126337  -0.13110311   0.07865326   0.1302302   -1.62560749
   0.1680553    1.50068426  -1.25166047   1.32113171   0.40323395]
[  0.22741766   0.31679568   1.82411945   5.33737659   0.17579554
  -0.84268975   2.63044381   0.21562411   2.439852    -2.48697901
   2.38314891  -1.05683541   0.16939832   1.64441872  -0.22826152
   2.31029701   1.71111763   0.65757263  -0.4784337    0.17156379
   3.34420347   2.03086567   2.70721197   1.3072418    0.76049387
   1.39871299   0.18674135   1.82132936   0.21880138   0.64494735
  11.05550003   2.19704199   0.14767309   2.34208941   0.20585778
   4.06079769   2.62556529   0.60925132  -1.42809248   1.41411924
  -1.12708259  -1.58378828  -1.06170511   2.0729537    0.13642922
   0.02974341  -0.49238217   0.18714231   1.29582107  -0.61239719
   1.39445055  -1.87527919  -0.22695212  -2.42361951   0.24327007
   1.5193603   -2.07946968   1.58455265   4.08547449   2.26202273
   0.1431641   -0.28598562   0.14733526   2.28798127   0.1900211
   1.71778679   0.24004656  -2.18014765   0.05030618  -1.76385438
   0.06488832   0.13353759  -3.58269811  -0.51427883  -1.77963352
  -0.67477894   1.08823967   0.17659223   1.09815228  -2.66923714
  -0.93873882   0.33640298   0.07731505  -2.31094861   3.21545482
   2.77896118  -1.27151728   0.21290343   0.80359745   2.99895692
   3.43743086  -2.47789359   1.573614     0.16718668   1.26203239
   0.22300737   1.77134156   0.611036     3.56362391   0.73484761]
[  1.80471212e-01   1.29920512e-01   4.48711634e-01   3.16821527e+00
   1.88480377e-01  -8.99224877e-01   1.14024961e+00   1.54694766e-01
   2.52723634e-01  -9.32056457e-02   4.44136173e-01  -1.73744321e+00
   1.55405372e-01  -9.66054082e-01  -2.69352961e+00  -6.55410469e-01
   3.34438324e-01  -7.37932324e-01   3.04256916e+00   1.68284625e-01
  -2.84274268e+00   2.65528828e-01  -1.99039078e+00   7.41988242e-01
   6.92018718e-02   1.12860801e-03   1.35008425e-01   3.13721955e-01
   1.68511584e-01   1.39182675e+00  -9.03996468e+00  -7.42759466e-01
   1.30397230e-01  -1.91967452e+00   1.80644378e-01   2.61351019e-01
  -1.27333924e-01  -1.24349022e+00   3.28918308e-01   1.37175739e+00
   5.23308337e-01   1.96084440e-01  -4.13188070e-01  -9.40907538e-01
   2.01659888e-01   1.57010779e-01   5.57174683e-01   1.91382244e-01
  -7.14672282e-02  -3.55454534e-01   3.99804503e-01  -8.82041082e-02
   1.92556813e-01  -3.97927454e-03   2.45394871e-01   2.13558897e-01
  -1.18496872e-01  -4.19782162e-01  -3.64010811e-01  -3.24410379e-01
   1.80479959e-01  -1.95058441e+00   2.16035783e-01   6.23254739e-02
   1.89791441e-01  -1.91038740e+00   2.00507462e-01  -7.29096889e-01
   5.83994144e-04  -2.22315693e+00   2.30162576e-01   2.26391286e-01
  -1.70620441e+00  -2.97068477e+00  -9.38182950e-01   1.97538048e-01
   1.39801977e-02   1.47755116e-01  -3.28332067e-01   3.81123900e-01
  -9.03268829e-02  -2.48443222e+00  -3.97788405e-01   2.51677841e-01
  -2.54787743e-01  -7.37627074e-02  -3.76206785e-01   2.15369180e-01
  -3.04974437e-01  -2.50175089e-01   4.21031453e-02  -1.07253504e+00
   9.25566256e-02   1.71758235e-01  -9.45399981e-03   2.07892582e-01
  -2.54572105e+00  -5.81120253e-01   1.23796010e+00   2.08169982e-01]
[  0.07782644   0.06906866   1.34445596 -24.79303932   0.11656231
   0.65358365  -3.20375466   0.07646796  -1.85859895   1.92568338
  -4.8005743   -4.09545326   0.09824721  -2.14818835  -5.68955851
   2.15297771  -6.54750967   1.19615376   3.16077471   0.10402079
  -5.87918329   1.83412039   0.13311979   0.22434074  -4.38019609
  -3.25723124   0.1177886   -5.88217402   0.07712197  -1.7770201
   1.19329071  -3.92635345   0.1127575   -1.82199717   0.12544629
   6.95996761  -0.59418243  -0.93332344   5.76943922  -1.52144372
  -1.3125633    3.3822124    4.95732927   0.62235588   0.09536096
   0.03990588  -0.46904472   0.1031545   -0.36823472   0.82827467
   1.82556784   6.04713726  -3.74855971   0.33241481   0.1460605
   6.33733082  -7.93099785   0.76408082  -6.36521626  -2.87968349
   0.09656876   0.75661975   0.12108628  -1.42284203   0.09183913
   8.18902779   0.10035244   2.69182229   0.95597059  -0.99129534
   2.23217773   0.07479402 -12.26124096   1.41970992   4.54123592
   7.13905525   2.51561284   0.11233816   8.03975677   2.47386241
   1.37904942  -0.84771311  -2.00714898   2.77185082  -2.35331082
   1.07449472   0.47323784   0.10964289   3.42843986  -6.11936474
  -5.5599227    0.95334351  -2.36066985   0.14565767  -2.96490788
   0.15359618  -2.7214992    1.8778311   -1.40318263  -0.56650472]
[ 0.64475125  0.66800725  0.10398702 -2.32483172  0.63690186  6.51886463
 -0.61358273  0.70699447  2.71119809  0.01193685 -0.13387464 -0.36253333
  0.52120405 -1.12001371 -0.71978807  0.24869291 -2.67215896  0.18944149
  1.47364783  0.65499222 -2.88238955  1.21486294  0.14343201  0.39553863
 -0.40906921  0.73629171  0.55530459  0.70033532  0.54592526 -1.4167614
 -5.78619194 -0.14375915  0.56174982  4.93103933  0.54281718  0.23829623
  0.46942747 -0.32589152  0.9533776   1.55573869 -1.1053319  -1.79901564
  1.11839056  2.40154743  0.61902207  0.50992274  0.0320941   0.62903512
  0.45232061  0.08113397  0.7834239   0.30941069 -1.38553345 -1.1750617
  0.669599   -0.90221226  0.04172828  0.07288913  0.40905875 -0.71516538
  0.56883103  0.67645204  0.58466083 -1.11155546  0.59858394 -0.79121745
  0.53901327 -0.10816706 -0.00694811 -0.70695174  0.89351636  0.52033973
 -1.07581055  0.76590008  0.27055681 -0.34657779 -0.80009961  0.52188975
 -0.54854035 -0.19020329 -0.85771704 -2.27294087  0.02166209  0.13301356
 -0.3341713   0.5679158  -0.30483097  0.61573011  0.47115138  0.63299298
 -1.41070569  3.0811367  -1.25581551  0.62423337 -1.09103334  0.61393929
 -0.12694249 -3.57246733 -1.96032631 -0.44234774]
[  0.0814167    0.0376221    2.42696548 -13.75987148   0.04535061
  -5.38325787  -0.51545089   0.07196338   0.43919969   0.75640458
   3.96307993  -1.30654633   0.08071602  -2.20559645  13.11723137
   0.10985375  -2.52463484  -3.88588929   3.07063437   0.04987855
   0.62174869   1.09564781   1.45538127  -2.76451302   2.4974401
   1.77794814   0.10243356   3.82135606   0.06885325   2.26616669
  16.54260445   2.39451647   0.03205201  -0.44594553   0.09553643
 -10.36390877   1.48924291  -0.62209082   1.30293572  -2.01850677
   0.46124673  -0.56540251  -1.74384177   0.26661724   0.02984357
   0.03388011  -5.31637907   0.08710629 -10.99802685   2.82774568
  -1.05744469   0.52489251  -4.01655769   1.39490438   0.11745621
   0.15636374  -3.84850931   0.93711364   2.31871033   1.65696907
   0.05116827  -1.88122463   0.02659019  -9.3579216    0.04316736
 -12.54516411   0.11801811  -1.81645954  -0.91278255  -0.45510793
   1.8226881    0.09315822  16.03546906  -2.02736735  -0.91569299
 -18.15596008  -4.17625952   0.10646424   4.47664452  -0.55499399
   0.09438597  -0.06242419  -1.45406628  10.98342133   8.20430183
   0.87346977  -0.39516696   0.03658928   0.24416794  -3.27372837
   6.78827667   0.43516707  -8.10068035   0.05395914   1.90518546
   0.13682742   2.81731772  -1.47755265   3.05926847  -0.11832047]
[ 0.21280408  0.17448679  2.76825976 -4.88373327  0.1445214   2.49940276
 -2.97925162  0.19677635  2.19471526 -0.4870061   0.72857964  2.41596437
  0.20457438 -1.16101766 -1.37246227 -1.20237899  1.80009425  2.17284942
 -0.16824609  0.1644409  -4.55353498 -0.66331613 -2.21889162 -1.34954619
  0.08681915 -0.61938512  0.15476361  0.89830714  0.1625879  -0.84622777
 -6.76713228  0.80755359  0.16811237  4.79764414  0.12800521  0.35484302
 -0.51386052  0.9407298  -0.09309881  3.58290648  1.25747216  0.79913139
  0.83837509  1.90915012  0.14853472  0.12749901 -0.31153971  0.14252597
 -0.27850327  0.63912332 -0.56321669  0.22374402 -1.4864347   1.18263113
  0.13003969 -0.8447293   1.08121061 -0.48354405 -0.3087121   0.43859953
  0.21326847 -0.31699377  0.11210946 -0.28423378  0.19035722 -1.72618234
  0.18111196  1.77412391 -0.58661866  1.94915104 -0.157453    0.16572748
 -0.54080486 -0.49628541  1.14427471  0.32144573 -0.13461189  0.14543667
 -2.39031649  0.74665368  0.00916796 -1.01366174 -0.41294181  1.08765161
  0.03905878 -2.01077247  0.01473406  0.18832628 -0.3437525   0.31715843
 -3.25663733 -3.63154697 -1.35873878  0.13176261 -2.44268799  0.1320553
 -0.20245907 -2.3912015  -1.0719434   1.15474463]
[  0.35358524   0.40007022  -0.55884349  -1.88914502   0.26960933
   0.31274366  -0.81534922   0.31137383  -1.20006955   0.60360193
   0.11295918  -1.71902525   0.31204742  -0.15978846   1.53628874
   0.08668359   1.87288821  -0.05173379  -2.25193858   0.25632429
   6.88075638  -2.82962298   2.2043345   -1.24936175   1.20549119
   0.13786137   0.35466355   2.00329971   0.32848299   0.58098632
  10.43209648   1.61850417   0.29270378   0.93353194   0.29428533
  -0.49239159  -1.37440419  -0.31460869  -0.94091928  -4.02718735
  -1.45299876  -1.32090247   1.93996406  -3.45213675   0.26475701
   0.24367018  -0.20718183   0.29859367   0.5584414    0.13583548
   0.69930273  -0.43480647  -0.25449467  -1.17828274   0.31377959
  -0.03941362   0.38686106   0.76150274   0.11887605   0.79689604
   0.31609404   2.41410518   0.28350741  -1.92451775   0.33558282
   0.64826411   0.31776422  -0.14786655  -0.43851084   1.94309258
  -1.24431992   0.28922975  -0.47406015   0.16772684  -0.38777012
  -0.4446798    0.9449625    0.30591831   1.12057221  -0.27407649
  -0.25914827   3.40686631  -0.9659521   -0.59990615   0.95423365
  -0.60251528   0.73966759   0.31275508  -0.06428726   0.03586523
   1.57731962  -2.62602091   0.4454886    0.32390955  -0.26355314
   0.34073821   3.97448897   0.63448507   0.38283715   0.44846398]
[ 0.43343502  0.50851536  0.40086311 -6.93653154  0.35804191 -0.62359762
 -2.96930981  0.43175864 -1.17977905 -0.38167214 -0.63864756 -0.14325988
  0.35707742  0.95743859  1.24168599  2.15658784 -1.92339134  0.19744191
  2.56343579  0.34798113  3.13784957 -0.37325841 -0.81934917 -0.22648616
 -0.53871304 -0.41049838  0.41930225  2.00464129  0.32953414  0.4027583
  1.99522901  1.14584696  0.39329889 -0.29196104  0.36251619  0.61832833
 -0.87478364  0.27307543 -0.43145898  4.31827497 -2.239784    0.44067323
  0.6133185  -1.1813817   0.30694211  0.30633867  0.44697303  0.39513028
 -0.7107774   0.1523561  -0.7684139  -0.02075676 -2.93152404 -0.87755162
  0.41382074 -0.33867934  1.10271311 -0.21572134 -4.44117737 -0.50565839
  0.27435377  0.70719773  0.34176064 -1.28949308  0.37253714  0.99195212
  0.36831349  0.95440626 -1.53433156  2.39155912 -0.48882616  0.46119004
  0.80515236 -0.48753279  2.60798192  0.29904217 -1.7612927   0.33762571
